26 0.02273058 -0.02273058 0.513587 -0.02819484 -0.1207393 0.3697998 -0.0363871 -0.0698478 -0.01199879 0.007015871 0.03505538 -0.4049455 0.04974068 0.5000915 -0.005447206 0.445927 -0.0575071 -0.4420609 -0.5350021 0.01949362 0.0134433 -0.03149302 0.1836453 0.1310192 -0.08089712 -0.05141919 0 0 0 0 0.05306704 0.02312422 -0.005866003 -0.0119322
27 -0.2584097 0.2584097 -1.111871 -0.2103445 -0.6736456 -4.28042 -0.1053027 -2.029064 1.339695 0.2685545 1.105909 0.5779463 0.3062314 1.012777 0.5877387 -0.3953063 0.05873545 3.196006 3.172386 2.769469 0.9864867 0.8552877 2.550438 -0.5022674 -0.1968264 -1.670005 0 0 0 0 0.75 0.3500676 0.07646795 0.2463289
28 -0.4800291 0.4800291 0.8303029 0.2402038 -1.840991 -1.71841 0.5943637 -1.484321 0.8364957 0.234409 0.2622488 0.8615237 0.2371008 0.1786833 -1.987759 -0.2473542 -1.99665 4.237383 3.824767 3.443859 2.957676 0.09498702 -0.8997171 0.03879585 0.1597999 -0.07195444 0 0 0 0 0.75 0.03735168 0.5323998 0.04849436
29 0.007957919 -0.007957919 -0.1209769 -0.005511947 -0.2952539 -0.2966525 0.03853446 -0.203741 -0.01332898 -0.01682066 -0.1963385 0.3352828 -0.01978567 0.1656985 0.1250235 0.3065511 0.1381408 0.137845 -0.05873134 0.5411613 -0.03129972 0.01151059 0.02680629 -0.1708187 -0.1722247 0.06261515 0 0 0 0 0.003049579 -0.0571618 -0.04264189 0.02114918
30 -0.0718764 0.0718764 -0.1257925 0.007470411 -0.07461025 0.4118125 -0.003121026 -0.3873491 0.2280811 0.01267593 -0.2920217 0.1570102 0.02211321 -0.2060528 -0.5123131 -0.3622253 -1.045333 1.000658 1.037589 0.3560337 -0.08916165 -0.1411781 0.08063925 0.05761801 0.06607442 0.5124441 0 0 0 0 0.09485494 -0.006734845 -0.02621539 0.02375274
31 0.02721471 -0.02721471 -2.144509 -0.4966589 -1.516678 -1.51727 -0.525224 -0.7447376 1.691704 0.5223882 0.973011 1.543115 0.5246374 1.006871 0.01423936 0.7287616 0.5321085 -1.181212 0.1992781 0.4834402 1.002077 0.6223598 1.775817 -1.006162 -0.6329512 -1.748283 0 0 0 0 -0.01601506 -0.03622717 0.01029659 0.08273925
32 -0.3958002 0.3958002 1.459701 0.05579773 1.041686 3.198804 0.1276222 1.591832 1.288811 0.2821414 1.004661 0.9613552 0.2622256 1.338614 -1.171668 -0.05538637 -1.935328 6.696471 3.056756 1.621324 -0.4070244 -0.370243 -0.300138 0.1922363 0.3300833 -0.4352388 0 0 0 0 -0.08556892 -0.004459736 -0.01462033 7.27022e-05
33 -0.4609005 0.4609005 -4.844333 0.1637435 -0.9697601 3.85136 -0.07620874 0.2904385 1.027351 0.3063983 0.5573716 0.6677435 0.3220267 0.4911463 -1.981533 -0.2169156 -1.921171 5.662759 4.548976 3.633446 -0.02631919 0.1888883 2.337023 -0.05161567 0.231617 -0.5016134 0 0 0 0 0.2691065 0.05008346 0.1977175 0.07376575
34 0.001597836 -0.001597836 -0.1929628 0.006632662 -0.1968862 -0.2001564 0.04148018 0.02740163 0.003862449 -0.01240454 -0.3035081 -0.2943793 -0.01066277 -0.04801593 0.008335184 0.265973 -0.2390907 -0.1497384 0.3552539 -0.6096065 -0.1091882 -0.1479114 -0.3894103 0.2649195 0.3492801 0.6328956 0 0 0 0 0.128541 -0.00972518 -0.04624292 0.02350181
35 -0.1354919 0.1354919 -0.2593255 0.03430661 0.2588331 -0.08916927 0.06893668 -0.02897905 -0.09889834 0.01277211 -0.3338832 0.8333813 -0.02746237 -0.03777361 -0.900658 -0.4892785 0.4039658 -0.1339303 0.2392738 0.3901566 -0.0720826 -0.004110196 0.3275002 -0.1884436 -0.001992802 0.04191468 0 0 0 0 -0.01732424 -0.01638843 0.08387105 0.02435567
36 -0.4800094 0.4800094 -0.6855901 0.2334605 -1.417082 7.229737 0.1386466 1.115308 1.025963 0.339665 0.6940629 0.9267384 0.3506512 0.7235136 -1.996043 -0.2500387 -1.991173 3.212781 3.08528 2.138504 0.09176291 -0.741473 0.537344 -0.5243817 -0.2947976 -1.257493 0 0 0 0 0.75 0.1597043 0.6576066 -0.007035014
37 0.007052036 -0.007052036 -1.904606 -0.4990406 -0.9492495 -0.9929318 -0.5696448 -0.9729827 1.883707 0.5113869 0.9948376 0.9856751 0.4747823 1.039027 -0.8991758 -0.3627961 -0.3787911 -0.3823566 -0.06082024 -0.7771392 1.021278 0.6054705 1.621013 -0.9483956 -0.7546921 -2.161164 0 0 0 0 0.1221671 -0.002714044 0.004793916 -0.000468726
38 -0.05226426 0.05226426 -0.4964319 0.03730747 0.1351878 -0.2292967 0.02857192 0.3191712 -0.01612845 0.007263337 0.2988189 -0.6873349 0.05425403 0.1094839 0.181794 -0.4547877 0.2902867 -0.627343 0.0049024 0.01526341 0.04620981 -0.04768197 0.02187613 -0.02381032 -0.07992556 -0.1628563 0 0 0 0 0.07832374 0.01476644 -0.01888755 -0.00693329
39 -0.0366228 0.0366228 -2.237678 -0.4717884 -0.6292896 -1.843999 -0.4683759 -0.7970506 1.584271 0.5403763 1.053462 1.35423 0.5072652 0.8667559 -1.132315 -0.0606007 -0.9173731 -0.4250668 0.08541327 -0.3208547 0.1849384 0.2263685 0.7460633 -1.052425 -0.7471889 -2.089888 0 0 0 0 0.7492195 -0.02961638 0.3393155 -0.04883248
40 -0.07323866 0.07323866 0.173876 -0.01371589 -0.005120207 0.4612968 -0.03875824 0.1429262 -0.3784694 0.01854431 0.2926459 0.212501 -0.01655491 0.252351 -0.1086922 0.03033687 0.7323388 0.1458483 -0.0988954 -0.5656657 -0.02790606 -0.01142983 -0.1891346 0.1807977 -0.03770656 -0.2539046 0 0 0 0 -0.05430206 0.07067807 -0.02033554 -0.01568565
41 0.04093592 -0.04093592 0.343626 -0.01667658 0.2511339 0.5556392 -0.03153783 0.2558437 0.001981267 0.03462276 0.2545089 -0.2214532 0.003186704 -0.1235563 0.1083181 0.05021866 -0.09558783 1.060832 0.647043 -0.1284581 -0.1179242 -0.0873727 -0.3531085 -0.1063494 0.2203783 0.2385345 0 0 0 0 0.05631997 0.07022894 -0.01405567 -0.01799313
42 -0.4800302 0.4800302 1.80371 0.4023906 0.3438222 3.445972 0.3522331 1.787721 0.9780736 0.2777422 1.009967 0.694591 0.2565836 0.8291287 -1.997603 -0.2500854 -1.995214 4.32122 3.615929 2.808557 -0.04223074 -0.6949765 -0.1035693 -0.2026041 -0.04237905 -0.531699 0 0 0 0 0.75 -0.06223251 0.1855374 0.07238969
43 -0.4397613 0.4397613 2.418192 0.111455 -5.070158 3.855013 0.02150041 -1.572741 1.126508 0.2039703 0.4294554 0.7703597 0.1813882 0.3163227 -1.844222 -0.4994408 -1.507004 6.002473 4.106691 2.340326 -0.481301 -0.2336932 1.152119 0.16046 0.1898267 0.03455083 0 0 0 0 0.2554839 -0.04835608 0.02943791 0.03821957
44 0.02528493 -0.02528493 -1.411327 -0.5384169 -0.9959332 -1.053918 -0.5379288 -1.00578 2.259807 0.4737537 0.9655748 1.760835 0.4778612 1.099613 -0.3842095 -0.01700564 -0.5083756 -0.590632 0.01711681 -0.4124428 1.075252 0.924928 1.841505 -0.9616627 -0.6962665 -2.104583 0 0 0 0 0.005830963 0.1469641 -0.02300652 -0.006219489
45 0.02174512 -0.02174512 0.06272504 0.008118727 0.1372799 0.07902221 -0.001222261 0.121742 -0.3688817 0.0225099 0.3254456 -0.2152655 0.06586804 -0.5860019 0.3172292 0.3045978 -0.4570133 -0.3621118 -0.3860076 -0.5811298 -0.008039338 -0.08156013 -0.2565059 0.1705985 0.1682966 -0.007617278 0 0 0 0 -0.04509801 -0.0342033 -0.03063624 0.0119793
46 0.08482142 -0.08482142 -0.3527492 0.0002924686 0.003627696 -0.2679152 -0.009132057 -0.04539916 0.1010617 -0.03844571 -0.133716 0.1535944 -0.06682526 -0.3159834 0.4588825 -0.2811342 0.633449 0.01868714 0.3724583 0.7639722 -0.07663367 -0.03068768 -0.2047649 0.06028446 -0.0004129256 -0.07722388 0 0 0 0 0.1541159 -0.09791712 -0.03518315 0.01255525
47 -0.4799975 0.4799975 1.29839 -0.2227737 1.630582 2.657586 0.5973931 -0.1683088 0.7436514 0.3146234 0.4626688 0.6225938 0.3308568 0.551531 -1.996364 -0.2493299 -1.99236 3.782056 3.586099 3.518429 0.87169 -0.4886174 1.96273 -0.05271595 0.1287365 -0.4225405 0 0 0 0 0.749986 0.0218757 0.775344 0.04174338
48 -0.06591111 0.06591111 0.07092098 -0.03240811 -0.08043935 0.6374223 -0.03326274 -0.1331308 0.2093699 0.04477196 0.1431372 0.1732664 0.02451927 0.4228963 1.083032 0.8443405 0.4902366 1.979883 1.315157 1.507057 -0.06421757 -0.01421881 0.2450626 -0.04499479 0.04093566 0.03343534 0 0 0 0 0.7499934 0.2478056 0.8 0.04827582
49 0.03869203 -0.03869203 0.2299646 -0.03091123 -0.07890183 -0.003383867 -0.01944234 0.1176779 0.5742852 -0.01129393 -0.1500385 0.3316309 -0.04094987 -0.006085296 -0.1747856 0.1200272 0.05315525 0.002919527 0.2849655 -0.2724578 0.0439862 0.01898187 0.02114433 0.04508844 0.3631673 0.7194192 0 0 0 0 -0.04003228 0.02390471 -0.01688199 -0.0143555
50 0.01865856 -0.01865856 -0.01333018 -0.005981282 -0.05007954 0.09585293 -0.007588667 0.1106452 0.1928177 -0.017529 0.1126443 -0.005429094 0.03329694 0.3888756 -0.4875231 -0.1077963 0.4048289 -0.3469382 -0.1168712 -0.936252 0.05448285 0.09774055 0.2728401 0.1686652 0.1703849 0.2546561 0 0 0 0 0.02144959 -0.04634283 0.02821567 0.0001447151
51 -0.4602008 0.4602008 3.533786 0.2447005 2.95805 -3.765862 0.4692862 -1.035108 0.7062497 0.2627603 0.3608542 0.8478052 0.2685124 0.4128601 -0.3062056 -1.138348 -1.524427 3.691692 4.043679 4.49094 0.9590045 -1.250589 1.097625 -0.002505619 0.1383898 -0.4967302 0 0 0 0 0.75 0.01324176 0.4202847 -0.01158452
52 0.01888925 -0.01888925 0.2286976 0.009939007 0.02749029 -0.1931996 0.007719737 0.1212108 0.1218852 0.02191834 0.355415 0.5906501 -0.0778054 0.1397918 -0.8186607 -0.1641343 -1.025174 0.09879022 -0.1579275 -0.4696154 -0.05372598 -0.01377082 0.003712657 0.0221516 -0.006661706 0.08028971 0 0 0 0 -0.03236406 0.03465826 0.003866704 -0.02975403
53 -0.203533 0.203533 -2.092616 -0.4784572 -1.240673 -2.027177 -0.4377879 -1.266175 1.761206 0.5157608 1.110253 1.108562 0.5149733 0.6937718 -0.3345898 0.254026 -1.035992 0.4788631 0.2379639 -0.2627184 0.3855998 0.04302394 0.5609225 -1.063641 -0.7732545 -2.132488 0 0 0 0 0.749618 0.1317682 0.4398956 -0.07887641
54 -0.4037288 0.4037288 -0.04188605 0.01832011 1.656783 3.495041 0.129239 -4.312461 0.3433272 0.1814315 0.1243671 0.3267437 0.1768329 0.1383789 -1.899012 -0.1194236 -1.393513 2.830991 3.540215 3.297541 0.2715036 0.005681042 0.4907939 0.06321084 0.008360163 -0.4915034 0 0 0 0 0.2901225 -0.03428224 0.1496116 -0.0007204052
55 -0.03944193 0.03944193 -1.892827 -0.4426786 -1.167267 -1.880383 -0.4407788 -0.8100353 1.933638 0.5008339 0.9556095 1.302146 0.5218526 1.334212 -0.7745479 -0.2226673 -0.7706773 -0.1135293 0.1329697 -0.9729846 0.8814871 0.6827314 1.390714 -1.024475 -0.6860888 -1.966791 0 0 0 0 0.7425939 -0.01039445 0.5994672 -0.1052478
56 -0.1008288 0.1008288 0.5971754 -0.02017276 0.2348534 -0.008878287 0.02272736 -0.0451168 0.3159669 -0.01297852 0.1396839 -0.04779162 -0.0007160104 0.06632365 -0.06378711 0.5303456 -0.5282688 0.2521198 0.5117527 -0.1088176 -0.266172 -0.2190766 -0.4702587 0.04200661 -0.2021879 -0.6747762 0 0 0 0 0.7492979 0.2689422 0.5383672 0.004958935
57 -0.01394535 0.01394535 0.05114593 -0.02794441 0.1207731 0.1760236 -0.03089779 0.269337 -0.3823085 0.0004618606 0.07259542 -0.0866532 0.04886544 -0.2470619 0.05640276 0.3084465 0.3957582 0.2743695 0.3359144 -0.3476291 -0.01651666 -0.0335977 0.07485453 -0.1503346 -0.1863619 -0.3401584 0 0 0 0 0.06792001 -0.03885768 0.0457083 0.01408843
58 0.08031138 -0.08031138 -0.05377319 0.0150869 0.1815058 0.1741674 0.01013268 -0.2745551 0.0636089 0.003870879 0.2605089 -0.3221735 0.05035805 0.09091018 0.4775282 0.02884076 -0.4902772 -0.1522729 -0.04051032 0.2543042 -0.08498733 0.09452888 0.1616375 -0.1153166 -0.06643279 0.1091348 0 0 0 0 -0.04668595 0.03590259 -0.05526627 0.0646212
59 0.02403213 -0.02403213 -0.1908182 0.02076903 -0.2901578 -0.04150541 0.03886457 -0.04105123 0.525853 -0.03005514 0.3117541 0.5931777 -0.08323505 0.1043278 -0.1853633 0.442302 1.177296 -0.2833903 -0.1871342 0.4730304 0.04670118 -0.08737764 -0.2236602 0.3539939 0.1816796 0.2809754 0 0 0 0 -0.02350784 0.03388532 0.01778442 0.007126343
60 -0.4793451 0.4793451 1.923252 0.02886947 2.114495 5.237839 0.2393293 0.8959996 0.9419897 0.2766309 0.3917097 0.674857 0.2732154 -0.06210927 -1.996311 -0.2465442 -1.990725 4.009821 4.233207 3.785965 0.5433674 0.806602 1.725964 0.01157426 0.3353778 -0.3427968 0 0 0 0 0.75 -0.006832397 0.3727778 0.0347535
61 -0.4702302 0.4702302 2.043785 -0.6597474 2.764598 -4.46526 0.1083332 2.003663 0.813507 0.2884269 0.4790256 0.3843073 0.267561 0.5081763 -1.98783 -0.2465755 -1.984677 4.533389 4.421624 4.823913 1.419881 0.1981212 2.411608 -0.03393978 0.1163453 -0.6513991 0 0 0 0 0.4219879 -0.002038741 -0.03736557 0.01706896
62 -0.4636958 0.4636958 1.843969 0.1133525 0.8671876 0.1240245 0.378505 -0.08845472 1.05858 0.238642 0.2047032 0.489302 0.2322929 0.07307998 -1.993889 -0.2466052 -1.995175 5.673881 4.91089 4.85733 1.444552 0.4849465 -0.3263011 0.2258012 0.3152428 -0.3060754 0 0 0 0 0.75 -0.08443717 0.1858511 0.04887844
63 -0.4596916 0.4596916 2.9603 -0.7485568 -1.355556 2.0425 -0.6677333 -3.531235 0.7500942 0.2838319 0.4718714 0.5519568 0.2859085 0.8865329 -1.989934 -0.2456718 -1.990083 5.836664 4.549492 4.057809 1.152752 0.4653066 2.789343 0.01141195 0.07916892 -0.8172906 0 0 0 0 0.75 -0.008276401 0.076888 0.06947285
64 -0.4584128 0.4584128 0.6482655 0.1587706 0.07236287 1.853888 0.2857852 -0.6237948 1.162337 0.2838903 0.801349 0.3900651 0.3126956 0.5212005 -1.20501 -0.2070865 -1.990323 4.388152 3.149301 2.314392 0.3546718 -0.3801604 -0.5281713 -0.05375247 0.06299064 -0.3637366 0 0 0 0 0.75 -0.01328659 0.1379592 0.01027605
65 -0.0001620286 0.0001620286 -2.262795 -0.4509889 -0.6235879 -1.419706 -0.4723385 -1.110535 1.513475 0.5008496 0.6896653 1.294465 0.5152718 0.791169 0.1859423 0.0455421 -0.2656509 -1.081285 -0.04736758 0.1437034 1.247035 0.814596 1.86121 -1.002598 -0.7598129 -2.256113 0 0 0 0 0.05721221 -0.02852013 -0.006271401 -0.05514551
66 0.01139335 -0.01139335 -0.3924168 -0.002194412 0.3471531 -0.006152866 -0.01825312 -0.0889702 -0.2957045 -0.001543906 0.2447336 0.08144463 -0.0150389 0.2969901 0.1730088 -0.02544718 -0.2304305 0.07433527 -0.0373436 -0.5334967 -0.08951417 -0.1083262 -0.07007775 -0.07838781 -0.2491491 -0.4926878 0 0 0 0 -0.05292152 -0.0452766 0.01375846 -0.01642924
67 -0.4704267 0.4704267 0.6372097 0.268483 -0.191857 -1.22326 0.69717 4.72686 0.6034511 0.2320122 0.3657937 0.6706539 0.2309884 0.3811154 3.172972 0.9578576 -1.712858 4.727282 4.015157 4.287915 1.102894 -0.137976 -0.2166518 -0.031034 0.0723643 -0.2893405 0 0 0 0 0.75 -0.0005118789 0.2182709 0.006218627
68 -0.02396383 0.02396383 -2.702178 -0.4307676 -1.068665 -1.665393 -0.4050281 -0.9476514 1.423581 0.533928 0.5066435 1.572655 0.5149267 1.036457 -0.9242491 -0.3640455 0.510535 -0.1922859 -0.1772884 -0.4509198 1.228147 1.243605 2.447059 -1.104012 -0.8038533 -2.184953 0 0 0 0 -0.06596887 -0.0690742 0.01977549 0.04258019
69 -0.03191387 0.03191387 -0.4307449 0.03209849 0.1480046 -0.123242 0.04242529 0.1678404 0.2254231 0.00154522 0.1140914 0.3402657 -0.01046703 0.1560223 -0.2716937 0.1881376 -0.3168661 -0.4089918 -0.4213138 -0.167035 0.2563209 0.2589979 0.1793946 0.07531585 0.03874381 -0.07986627 0 0 0 0 0.05284409 -0.03676736 -0.01233634 -0.03178233
70 0.1137152 -0.1137152 0.2141317 -0.00146726 -0.1544673 -0.4402069 0.02926214 -0.1730838 -0.08407912 -0.01938518 0.04702951 0.3038014 -0.04891337 0.1780989 0.07014144 0.1811096 -0.1060556 -0.3078483 -0.3304788 -0.6460079 -0.03067444 -0.03243097 0.1983226 0.1000675 0.001476066 0.1087796 0 0 0 0 0.004677165 -0.04503021 0.007985473 -0.025478
71 -0.4780587 0.4780587 6.067189 -0.722252 2.907002 4.554058 -1.025447 0.8486412 0.8650715 0.2126184 0.2192618 0.6149508 0.1931944 0.5712992 -1.99411 -0.2483817 -1.98735 3.847026 3.948108 3.810227 1.183756 -0.2899594 3.393743 0.0725623 0.07219911 -0.3694972 0 0 0 0 0.75 0.0162427 0.04354742 0.06389775
72 -0.01821024 0.01821024 0.307812 -0.01786643 0.02719925 0.7579291 -0.06144394 -0.1486944 -0.8794259 0.01339096 0.1624772 -0.03792899 -0.0201342 0.1167866 0.06311692 0.1188006 -0.1761813 0.10792 0.2482423 0.6207181 0.06562449 0.112093 0.09011178 -0.1155453 -0.338515 -0.8484244 0 0 0 0 -0.01249582 0.06200913 -0.001786402 -0.02361285
73 -0.02682239 0.02682239 -0.6214526 -0.0003353704 0.3223571 0.1327753 0.02416161 -0.1647212 0.2098516 -0.1076783 0.2557389 -0.1534682 -0.04645143 0.6552796 -0.3467496 0.1437483 -0.200374 0.1639558 -0.2589519 -0.3870705 -0.1618002 -0.05073007 -0.07280128 -0.1307245 -0.1511055 -0.3835099 0 0 0 0 -0.03800256 -0.02576741 -0.0154829 0.008505721
74 -0.11741 0.11741 -0.4864096 0.07565391 -0.1521973 -0.281463 0.04032904 -0.484555 0.5031137 0.004781064 -0.04503723 -0.000852874 0.01867756 -0.2336382 0.1177156 -0.8334584 -0.3275277 0.1737159 0.06522051 0.1799536 -0.07704497 -0.1102934 0.008395584 -0.01430584 -0.09985805 -0.1907077 0 0 0 0 0.07624143 0.03139532 0.02664459 -0.005953165
75 0.03926831 -0.03926831 -0.08723897 0.004241466 -0.1548688 0.7067274 -0.0002570515 0.5353261 0.1414303 0.003994508 0.1417407 -0.4705148 0.02557143 -0.003707405 0.7634404 -0.1182998 -0.2271844 -0.0348494 0.1076906 -0.3899282 -0.01184772 0.008083169 -0.1188818 0.1375516 -0.002348564 -0.1091356 0 0 0 0 0.1150155 -0.0670686 -0.0230735 -0.03294229
76 0.01370451 -0.01370451 0.421372 -0.03744385 0.2519379 -0.1616065 -0.008597364 0.01559859 0.2817904 -0.02370563 -0.3559638 0.285437 -0.03257984 0.02158904 -0.1723146 -0.01088091 -1.156304 0.366793 0.2988713 0.9378799 -0.03316624 0.04792742 0.0679442 0.1039168 -0.1032517 -0.4687305 0 0 0 0 -0.03406454 -0.05695017 0.008385791 0.01997211
77 0.006815478 -0.006815478 0.07804628 -0.004951202 0.08798907 -0.3626867 0.02281065 0.009939547 -0.02176939 -0.04102645 -0.02496845 -0.3663232 0.01559272 -0.2029763 -0.1874288 -0.3240399 0.09866774 0.1844908 -0.03515371 0.02589146 -0.0300939 0.1178678 0.3345361 0.209057 0.1843341 0.1757125 0 0 0 0 0.09764343 -0.03662128 0.02875162 0.006037434
78 -0.09534102 0.09534102 0.3192475 0.003208858 -0.06825513 -0.222565 0.01887309 -0.04238127 0.1857014 0.03436751 -0.293125 -0.205833 0.05172252 -0.1661129 -0.6468495 -0.2154588 0.001144313 1.050839 0.2273117 0.4914336 -0.04583095 0.02609662 -0.1359883 -0.1506729 -0.1401219 -0.0764237 0 0 0 0 -0.09874783 0.1085847 -0.03679714 0.002130648
79 -0.007416268 0.007416268 -0.3020819 0.006680431 0.1427117 0.1383404 0.02356162 -0.1252264 -0.1888921 0.03548856 -0.07766759 0.1118878 0.0297142 0.4624409 0.07917922 -0.1209188 -0.7018768 0.1260266 0.02350954 -0.3913578 0.01595271 -0.1549283 -0.07325681 -0.2648833 -0.4954873 -0.8294488 0 0 0 0 -0.06021886 -0.1195921 -0.01879034 -0.007731164
80 0.035952 -0.035952 0.5170151 0.005871843 0.01042026 0.3970467 -0.03081106 0.122798 0.4762884 -0.04652586 0.02225916 0.3292165 -0.009449801 0.06966427 -0.01645715 0.4460904 0.8555974 0.08827135 0.0435713 0.04719475 -0.001974288 -0.05798946 -0.09425875 -0.09374513 -0.1038809 -0.3546617 0 0 0 0 0.0617223 0.08297361 0.03225484 0.02199271
81 0.06338568 -0.06338568 0.03115704 0.02342388 0.3009576 0.2356353 0.01989409 -0.08409601 0.0381256 -0.0235949 -0.4719295 -0.2392596 -0.0002471824 -0.3174263 0.1355598 0.3011276 0.3897181 -0.4499726 -0.5728903 -0.4237385 -0.08905162 -0.03050179 0.04700952 0.009026179 0.117872 0.342018 0 0 0 0 -0.008206651 -0.08685661 -0.02215082 -0.01744258
82 -0.03053998 0.03053998 -0.1583729 0.01495073 -0.1922746 -0.1554278 -0.01022247 -0.1041953 -0.1292832 0.0400884 0.1608573 0.316357 0.0343412 0.3829535 0.2999844 0.1390634 -0.2052232 -0.2524015 0.2733397 -0.2285405 -0.1256228 -0.01603083 -0.0233364 0.3615179 0.3335694 0.4395579 0 0 0 0 -0.135202 0.04191604 -0.01233449 0.02926125
83 0.04012636 -0.04012636 0.1153072 -0.00140339 0.2701274 0.07055483 -0.00266223 -0.1538751 0.1043385 0.006955227 -0.3552903 -0.2685503 0.02705506 0.23518 -0.1389897 0.0642986 0.003886431 -0.07235057 0.01661491 -0.5706797 -0.08562606 -0.07466419 -0.02936886 -0.2196497 -0.1536867 -0.3227113 0 0 0 0 -0.01116469 -0.03123835 -0.006511461 0.02263778
84 0.02209463 -0.02209463 -0.4900272 0.006087366 -0.238367 0.2516173 0.001483284 0.04378981 0.1752868 -0.01828459 0.3529652 -0.04954069 -0.03152231 0.4734689 0.2110049 -1.031342 -0.344179 -0.6735419 -0.4943934 -0.656932 0.03852097 0.0511477 -0.02455616 0.1336263 0.1823174 0.3227374 0 0 0 0 0.05498132 -0.07800486 -0.04430034 -0.0007350536
85 0.1333652 -0.1333652 0.1036738 -0.02270451 -0.07577058 -0.04633149 0.02089381 -0.1815336 -0.5557009 0.0276889 0.01076886 -0.3990903 0.04081907 0.1094254 0.1544847 -0.4623636 -0.005075212 0.3214447 -0.6234886 -0.1890892 -0.07088987 -0.1512154 -0.3027537 -0.3000411 -0.2126936 -0.3109063 0 0 0 0 0.02485675 -0.01151595 -0.0346065 -0.06032214
86 0.1421174 -0.1421174 0.2883903 0.03702779 0.5274674 0.09436672 0.02601228 -0.07882219 -0.1850214 -0.00653076 0.1544785 -0.2676457 0.1009589 0.09379829 0.05870822 -0.1412843 -0.620969 1.169448 0.1238872 -0.2407689 -0.05064655 -0.04342228 -0.01775341 0.1924401 0.06121243 -0.282909 0 0 0 0 0.04218479 -0.1188308 -0.03804329 -0.05528258
87 0.04644935 -0.04644935 -0.2721094 0.009326511 -0.01914768 0.4422054 -0.02433119 0.307327 -0.4730939 0.0370829 -0.721019 0.004457463 -0.000818036 0.01289978 -0.03662175 0.4463288 0.5302511 0.2053186 0.2289526 -1.071029 -0.01109838 -0.1239193 -0.2959927 0.02796673 0.3779732 0.8294885 0 0 0 0 -0.1094793 0.04389368 0.007062728 -0.01476304
88 0.06120834 -0.06120834 0.1960575 -0.01925792 -0.3265248 0.1674251 -0.01245298 -0.1395004 -0.3783886 0.007797145 0.4411213 0.01399328 0.01513668 0.5694311 -0.2651753 0.2279046 0.4886948 0.05546246 0.7375913 0.6443858 -0.05922917 0.05006798 0.05203124 0.3759446 0.1499004 -0.1379726 0 0 0 0 0.05284604 -0.08263306 -0.004452008 0.05809898
89 -0.01350629 0.01350629 -0.4196218 0.03620078 0.03587651 -0.4363882 0.04708721 0.1269736 0.03775264 -0.03501514 -0.2087258 -0.5129348 -0.00218533 -0.4197945 -0.5614299 -0.2779649 0.2086297 -0.4730126 0.07663966 0.223957 0.03298795 0.1250702 0.1792931 -0.039301 -0.1561283 -0.1289935 0 0 0 0 0.03028218 -0.02803774 0.02564569 0.001566779
90 0.0262384 -0.0262384 0.4758462 -0.0302273 0.4508632 -0.08839659 -0.01217439 -0.06244355 -0.4577544 0.0348581 -0.01341912 -0.3720982 -0.001438578 -0.07606502 0.3342138 0.165119 0.07708131 -0.7508769 -0.2514989 0.2093043 -0.1037733 -0.1284717 -0.1429915 -0.007233605 -0.0413695 -0.349379 0 0 0 0 -0.01420425 -0.03521075 0.04229998 -0.009512175
91 0.05593653 -0.05593653 -0.2128718 0.0178947 -0.1114004 -0.2557496 0.03443967 0.002066483 -0.2423894 0.02696428 -0.3912357 0.1038456 0.05052239 -0.3501694 0.2227865 0.4567433 0.392155 -0.02402456 0.178412 0.1139748 -0.03377805 0.1087106 0.1171266 -0.275403 -0.1320846 -0.1933137 0 0 0 0 -0.108903 -0.05056701 -0.01789293 -0.02426706
92 0.01075354 -0.01075354 0.2919717 -0.02333283 0.258573 0.01094486 -0.03348609 0.3130534 -0.04975361 -0.007411318 -0.5959901 -0.08414604 -0.06621957 -0.4320764 -0.5456437 0.0023064 -0.2513253 0.07775609 0.3047413 -0.5364886 0.04110661 -0.01647582 -0.06626475 0.1379263 -0.1116502 -0.1815219 0 0 0 0 -0.001445781 -0.02113449 -0.01866901 0.006495925
93 0.03512558 -0.03512558 -1.84903 -0.492488 -1.012915 -1.440805 -0.5276497 -0.7026884 1.934997 0.500545 0.5818406 1.679838 0.4735333 1.194697 -0.1482628 -0.5164795 -0.1629318 0.3399716 -0.4831763 -0.9802832 1.236163 0.8053936 2.093672 -1.050225 -0.7737198 -2.251852 0 0 0 0 0.02449564 0.000719076 0.002006739 -0.04456515
94 -0.0388034 0.0388034 0.01678152 0.000605188 0.1155835 0.1767681 -0.03410637 0.1833512 -0.09142076 0.0003818256 -0.03638071 -0.3087359 0.002774288 0.1112985 -0.2852692 0.233734 1.067427 -0.2429603 0.5087033 -0.1963189 -0.0274963 -0.01031868 -0.100152 0.06995749 -0.07230651 -0.3501902 0 0 0 0 0.01557263 0.003621585 -0.02958376 0.02492884
95 0.05205928 -0.05205928 -0.1804678 0.03210865 0.04120788 -0.1388029 0.0004537805 0.1933697 -0.07571876 -0.01495804 -0.06248692 0.09503706 -0.002589637 -0.2080643 1.367832 0.2627809 0.29781 -0.5199447 0.1338578 0.8999307 0.08299809 0.1074994 0.0787655 -0.1388882 -0.2200239 -0.5340912 0 0 0 0 0.02876044 0.09354112 0.06158046 -0.04484115
96 -0.02872543 0.02872543 -0.1719333 0.002296949 -0.09017011 0.05877853 0.01916281 -0.006315251 0.1216735 -0.0274465 -0.47723 -0.03900677 0.005332431 -0.6404683 0.06479599 0.1978991 -0.6695544 -0.3845352 0.05180773 -0.4595752 -0.07478375 -0.0547301 -0.01346273 -0.0009043069 -0.026798 -0.04192392 0 0 0 0 -0.06857046 0.01085009 0.02542884 -0.01796253
97 -0.008775474 0.008775474 0.1967065 -0.004914563 0.1279646 0.5059269 0.02971504 0.1116762 -0.04900805 0.01606866 -0.2577515 0.102105 -0.02622015 0.02130932 0.1124264 -0.193789 0.03456283 -0.708218 -0.4415563 -0.4923484 -0.1061246 -0.06946738 -0.1067304 0.02431245 0.2174966 0.8555516 0 0 0 0 -0.005386725 -0.07815297 -0.02396491 -0.01979608
98 -0.073814 0.073814 -0.4904131 0.04103871 -0.2454483 -0.08871375 0.03658919 -0.2564861 0.2475599 0.01404701 0.4718775 0.3138221 0.005554178 -0.0261288 -0.1499154 -0.8872138 -0.5340493 0.0834155 0.4676621 0.3269947 0.02246695 -0.03800015 -0.2446947 0.08231496 -0.1583978 -0.7409497 0 0 0 0 -0.1077126 -0.01740707 -0.004513508 0.006168816
99 0.04546627 -0.04546627 -1.869468 -0.4852868 -0.8586614 -1.672748 -0.4779616 -0.9980743 1.964793 0.4819555 0.7923905 1.992513 0.4763379 0.9741873 -0.3242463 0.3858743 0.1938309 -0.01312866 -0.7854581 -0.2925884 1.000566 0.5423713 2.308988 -0.809355 -0.5967001 -2.112363 0 0 0 0 -0.01111702 -0.008260901 0.03806473 0.05180366
100 -0.008511459 0.008511459 0.2246874 -0.00514702 0.1065721 0.1643088 0.008378876 -0.06316104 -0.2966064 -0.007768025 0.25788 0.2881619 -0.03301573 -0.1342642 0.1276882 -0.07783169 0.2202041 0.08421082 0.5846133 -0.6834379 0.0698418 0.0720425 0.009461554 -0.1194222 -0.1784721 -0.4632634 0 0 0 0 -0.104823 0.02447409 0.03784757 -0.004746393
1 -0.02234103 0.02234103 -2.076276 -0.4945632 -1.282716 -1.487707 -0.4718785 -1.05138 1.786621 0.5033042 0.7717317 0.9136198 0.5381224 0.772575 0.2283881 -0.6932079 -0.6245441 -0.302233 -0.06686217 -0.3107601 0.8168614 0.526548 1.745725 -0.9921829 -0.8594977 -2.019574 0 0 0 0 0.02568312 -0.1748294 -0.007585796 0.1317546
2 -0.4458403 0.4458403 -2.218199 -0.03711786 -0.7275562 0.09376358 -0.02093905 -1.083406 0.8317409 0.3139317 0.7163109 0.712463 0.2676515 0.8515807 -1.917989 -0.1332016 -1.81223 3.466547 3.871579 3.737498 2.202607 0.1847721 0.2203955 -0.4884443 -0.318461 -1.080218 0 0 0 0 0.75 0.009715501 0.1175517 -0.0001321596
3 -0.01671366 0.01671366 0.0266005 -0.009990577 -0.13706 -0.187387 0.001148528 -0.03046892 -0.551606 0.01949216 -0.3683635 -0.7069774 0.05519604 -0.1174143 -0.7992483 0.2807215 0.08165841 -0.3321853 -0.1388076 0.6257786 -0.04112734 -0.1084569 -0.1486954 -0.1725008 -0.2795782 -0.4465683 0 0 0 0 0.06776966 -0.05086784 0.03633672 0.00178701
4 -0.02691837 0.02691837 -0.3488497 0.02210373 0.08107862 0.3728887 -0.05147898 -0.03467131 -0.2549847 0.02507862 -0.3570783 -0.1988281 0.0451046 0.4373431 -0.6520234 0.1026524 0.1436772 -0.1064168 0.8358299 -0.313586 -0.06226167 -0.1066623 -0.004936988 -0.1856615 0.05308566 -0.1104008 0 0 0 0 -0.02910799 0.07239864 0.0009855743 -0.02469296
5 -0.05970932 0.05970932 -0.04148999 0.01068496 -0.0145281 -0.400709 0.02135311 0.07005514 -0.1548563 -0.002636364 -0.2809767 -0.2825596 0.04022553 -0.2056344 0.1223007 0.05568216 0.1497245 -0.4465011 0.003564918 -0.8357336 -0.0779326 0.04605789 -0.01042156 0.03763103 0.1398684 0.1547984 0 0 0 0 0.07462531 -0.01412068 0.04843655 -0.03150707
6 -0.04308212 0.04308212 0.204233 -0.005557452 0.2352938 0.1022156 -0.04160628 -0.149964 0.5409913 -0.01817721 -0.07980531 0.7914428 -0.04226303 0.08650625 -0.5418219 0.05372876 -0.09626621 0.3057244 0.2971442 -0.1609109 -0.03297468 -0.1429863 -0.01023599 0.2028445 0.2607912 0.05415996 0 0 0 0 0.1432812 0.0931702 0.02530437 0.03628622
7 -0.4006364 0.4006364 -0.5491216 -0.5300382 -5.421749 -1.958182 -0.5118596 0.4353278 1.531911 0.4279424 0.9871491 1.157553 0.4138943 0.9762552 -1.813334 0.1732128 -1.005272 2.084173 2.507764 1.686932 0.662886 0.4213515 1.039686 -0.958722 -0.5904038 -1.715618 0 0 0 0 -0.04179966 0.2190203 -0.07536977 0.1147622
8 -0.4601059 0.4601059 -1.363872 -0.3698948 2.522554 -0.9606827 -0.01058799 8.794246 0.4335139 0.2146498 0.1191352 0.0765297 0.225211 0.1420335 -1.350244 0.4395063 -1.240677 5.12092 3.5512 3.182532 0.8070077 -0.7841636 4.331193 0.2523839 0.3854882 -0.1540057 0 0 0 0 0.75 -0.06516505 0.1818196 0.04000013
9 -0.4792511 0.4792511 2.387616 -1.237151 3.515338 2.804926 -0.6984215 1.869655 1.448897 0.24385 0.6926015 0.9011804 0.2166445 0.3414431 -1.992281 -0.2410026 -1.9764 4.266798 4.275712 4.161193 1.405225 2.451009 7.664309 0.1907688 0.1648066 -0.5516207 0 0 0 0 0.75 -0.008260049 0.05316427 0.07223927
10 0.01462292 -0.01462292 0.0207002 0.005941098 -0.1971741 0.1261379 0.01354318 0.029847 0.004166935 0.0005858112 0.09192917 0.2310536 -0.04566286 -0.219292 0.58659 -0.8136437 -0.3401764 -0.4275326 0.5473973 0.6217359 0.1270797 -0.07276558 -0.213154 -0.2013642 -0.1114747 -0.1391933 0 0 0 0 0.07429363 0.02446034 -0.01819475 -0.05455702
11 0.08525681 -0.08525681 -1.637983 -0.5207765 -1.230393 -1.000268 -0.5550041 -0.8958669 1.803639 0.524852 0.7347819 1.487286 0.4863 0.971727 -0.3160243 0.4151766 0.5864386 0.7954041 0.1867259 -0.7785771 1.401863 1.076925 2.246484 -1.201539 -0.8681245 -2.243863 0 0 0 0 0.015357 0.03526214 0.04930175 -0.004260551
12 -0.01719063 0.01719063 0.1672304 -0.01578813 0.1354707 -0.198581 0.005808562 0.149235 0.07953004 0.002979307 0.119939 0.2577822 -0.0311916 0.1583994 0.4420407 -0.02253999 0.3569238 0.6846552 -0.9031795 -0.07824511 0.001059368 -0.04799476 0.02982249 0.1959286 0.03441012 -0.06356321 0 0 0 0 0.04798367 -0.1104816 0.01808099 0.001800778
13 0.01853526 -0.01853526 0.2729611 0.005730339 0.3867814 0.1752793 -0.00822607 0.156657 -0.1666724 -0.0003244838 0.1212885 -0.3494031 0.02779738 0.3143986 0.3255808 0.4092858 0.08374748 -0.2820796 0.4956724 0.7675489 0.0878565 0.0328779 0.1830157 0.02019664 -0.1061302 -0.250682 0 0 0 0 0.0004002071 0.02731388 -0.0118753 0.01198328
14 0.1758184 -0.1758184 0.09687399 0.008225995 0.2219369 0.02037821 0.02222448 0.01685913 -0.4391646 0.05093765 0.2956114 -0.3408956 0.07998085 0.1376875 -0.02490816 0.0002860154 -0.7436546 -0.2372085 -0.09819974 -0.8900009 -0.1290522 -0.1406935 -0.04983359 0.1877949 0.2392014 -0.02731213 0 0 0 0 0.07191157 -0.2006989 -0.03298603 -0.02699457
15 -0.02605612 0.02605612 -2.212265 -0.5005764 -0.5257841 -1.290981 -0.4792072 -1.45352 2.132396 0.5427462 1.10379 1.176392 0.5323696 0.8418598 -0.2415215 -0.3643974 -0.3423285 -0.007097488 0.0634143 -0.5641191 0.8127166 0.4858082 1.431631 -1.009567 -0.8434694 -2.151163 0 0 0 0 0.2420973 -0.03117731 -0.002161318 0.004706433
16 0.02890003 -0.02890003 -0.676743 0.01125284 -0.2509471 0.1139324 -0.03979535 0.04969253 0.1076596 -0.01076602 -0.173355 -0.07322564 0.04924398 0.3465666 -0.219729 -0.1103357 -1.019181 -0.5045686 0.1364206 0.1651785 0.04521703 0.01425504 -0.08148797 -0.2115702 0.170043 0.3434993 0 0 0 0 0.08807968 0.07332435 0.02018506 0.02527243
17 -0.4803461 0.4803461 4.462283 -0.03020275 0.666135 5.584503 -0.7946493 -1.23135 0.6040183 0.2244105 0.3256555 0.1514458 0.2606038 0.397213 -1.979166 -0.2419067 -1.984322 4.88397 4.00561 3.490883 2.317276 0.7522051 0.5111532 0.06321008 0.1684254 -0.04494465 0 0 0 0 0.75 -0.04323849 0.4087666 0.03991619
18 0.03454055 -0.03454055 -0.153006 0.006964626 0.04451529 0.1569475 0.004952519 0.09547418 -0.3627861 0.009880815 0.1474778 0.01658944 -0.06614665 -0.04574526 -0.3129984 -0.6951893 0.780675 -0.5905203 -0.9251491 -0.5770582 -0.009796506 0.0435491 0.07607354 0.05395809 0.1954788 0.2539288 0 0 0 0 -0.0253657 -0.0359101 0.002873685 -0.005241499
19 -0.0558169 0.0558169 0.04144406 0.02088712 0.4013504 -0.1166985 0.02979904 0.02651569 0.1519762 0.003720779 -0.1789424 0.3105226 -0.05904122 0.2074307 -0.489179 0.2415126 0.5991716 -0.1765478 0.6621536 1.232556 -0.1296191 0.004102017 0.1790725 -0.01967995 -0.02080564 -0.1720926 0 0 0 0 0.09640727 0.006525227 -0.02707 0.006546789
20 0.09268617 -0.09268617 -0.08717486 -0.008086772 0.007881075 0.03063734 0.00142034 0.09833773 -0.8850702 0.03714502 0.2484381 -0.63962 0.0001923242 0.3551466 -0.3208754 0.1002416 1.03036 -0.319703 0.1917018 -0.1054102 -0.1226407 -0.1888648 -0.1759986 -0.2416083 -0.03479529 -0.1317339 0 0 0 0 0.01669562 0.02814721 -0.01627552 -0.02664879
21 0.04996008 -0.04996008 -0.2950178 0.03848735 -0.1443967 -0.1224373 0.004855615 0.1861919 -0.3234767 0.06266477 -0.3167597 -0.09169053 0.05905624 -0.179279 0.3462847 0.5283733 1.177934 0.609204 0.5620241 0.1763975 -0.1032415 -0.09542558 -0.006940974 -0.2567012 -0.1395885 0.01677218 0 0 0 0 0.05283938 -0.1061588 0.008828279 0.003636212
22 -0.07515903 0.07515903 -1.856477 -0.5482092 -0.8493419 -1.663086 -0.4535482 -1.05409 1.770296 0.4707796 0.5229073 1.510608 0.4915281 0.7032168 -1.135411 -0.199546 -1.236193 0.5663119 0.4729891 -0.1680389 0.165217 -0.06567951 -0.05908274 -0.9952282 -0.7729427 -2.200123 0 0 0 0 0.7499999 0.09778894 0.3149365 -0.08685157
23 0.04227423 -0.04227423 -0.2617375 0.03080015 0.1392398 -0.09509573 0.01231211 -0.03147262 0.317806 0.02297519 -0.1441239 0.2061248 0.1011039 0.2861983 -0.7954931 -0.1753622 -0.4792094 -0.787021 0.6031175 0.2804018 -0.01375479 -0.03055429 -0.1130851 0.03252609 0.1000845 0.262192 0 0 0 0 0.05825302 -0.1493283 -0.0378951 0.01727151
24 -0.09059479 0.09059479 -0.2992114 0.03648258 0.08661512 0.3867287 -0.01910714 0.2363937 0.2206435 -0.02247576 0.05111588 -0.5132448 -0.01732996 0.1585715 -0.1223043 -0.0534927 0.06053389 -0.1074762 -0.2834336 0.4181469 0.1911732 0.2803961 0.4820411 -0.1482191 -0.2605823 -0.1054188 0 0 0 0 -0.120262 0.02891481 0.03510671 -0.004141898
25 0.02997165 -0.02997165 -1.999462 -0.5392729 -0.7923051 -1.438946 -0.5067358 -0.7846551 1.937846 0.5013902 1.159419 1.224958 0.5099849 0.8790388 -0.455739 -0.4205101 -0.6244718 -0.4463743 -0.08780353 -0.4412205 1.081094 0.5418421 2.157139 -1.102377 -0.7829454 -2.080884 0 0 0 0 -0.02084211 0.01320673 -0.03273302 -0.01221414
