1 -0.4499146 0.4499146 -3.158573 -0.1259711 2.347583 3.250953 -0.7329761 0.05521865 0.1844221 0.4035808 -0.1621131 0.4582324 0.4566349 -0.4456627 -1.96937 -0.2111161 -1.94834 4.127509 3.812295 1.408207 4.951385 6.931131 8.156939 -0.5332455 -0.29782 -1.555441 0 0 0 0 0.75 0.2914583 0.4018006 0.09748693
2 -0.354909 0.354909 0.3023871 0.2518541 3.445779 -4.309488 0.6792692 1.372362 0.995795 0.23534 -0.463831 -0.4474067 0.3194259 0.02176583 -1.992367 -0.2423082 -1.985357 2.37345 3.589267 3.605866 0.7052257 1.698952 3.000051 0.0006720888 0.2642764 -0.3217951 0 0 0 0 0.4078008 0.0536837 0.03237377 0.01145418
3 -0.3001704 0.3001704 -3.24287 -0.4510919 -0.3737532 -1.037553 -0.6606067 -0.7910126 1.37516 0.4757785 0.6355445 0.9231037 0.5315229 0.7967051 -1.244184 -0.1669867 -1.984763 0.5710192 2.926889 3.087729 0.8490505 -0.4419838 -0.0009638011 -1.001524 -0.6832485 -2.126646 0 0 0 0 0.7499834 -0.1247566 0.67387 -0.06859124
4 -0.1010387 0.1010387 -0.7677337 -0.5120702 0.8175234 -1.992347 -0.5138738 -0.7430698 1.453476 0.4724917 0.1562682 1.029537 0.4819647 -0.4630321 -1.380642 -0.2685826 -1.983497 -0.2739747 0.8815616 -0.7452446 0.7291429 0.4882817 2.241571 -1.234295 -0.8160892 -2.145546 0 0 0 0 -0.122896 0.08488314 -0.03268386 -0.07399115
5 -0.3499338 0.3499338 2.641795 -0.01124273 -0.5047426 -0.4233802 0.3720987 3.407593 1.39326 0.2323175 -0.1480774 1.08254 0.241292 -0.2309279 -1.994554 -0.2402636 -1.968127 5.55168 6.003682 4.276643 -0.002598227 -0.08789062 0.8720704 0.219552 0.09910849 -0.6559327 0 0 0 0 0.75 -0.1904694 0.3016917 0.006795093
6 -0.2504745 0.2504745 0.1724084 -0.0003083227 -0.3735941 -0.9862646 0.1219271 0.1688558 -0.05551884 -0.01511036 0.1574797 0.739563 -0.07704041 0.7204875 -0.8985576 -1.276547 -0.9944573 -0.6565775 -0.1070385 -0.8565378 0.1253266 -0.07659452 0.7379983 0.1249194 0.1044083 -0.7017497 0 0 0 0 0.1494618 -0.04874606 0.004559581 -0.03665644
7 -0.1509878 0.1509878 0.8515157 0.122829 0.5966731 -0.7403941 0.1023125 -0.3409972 0.3530792 0.1163468 -0.1288818 1.005206 0.06059068 0.1266681 -1.921136 -0.04311261 1.875991 1.290128 2.047314 1.136183 -0.05071515 -0.1925993 0.1134455 0.0202974 0.3162876 -0.5819226 0 0 0 0 0.1965734 -0.09525509 0.06652072 -0.04420139
8 -0.4038332 0.4038332 -2.374938 0.3422187 -2.750783 3.861776 0.4366969 4.125642 1.209145 0.4236717 -0.06967039 1.748964 0.3248919 0.09664361 -1.946528 -0.2280809 -1.944365 1.451421 2.743727 2.139309 0.6091386 0.01167428 -0.06179325 -0.711548 -0.3041496 -1.477012 0 0 0 0 0.75 0.07463811 0.3153851 -0.0009914225
9 -0.4010336 0.4010336 2.74324 0.05719346 1.008122 -3.637609 0.0006728266 -2.639469 -0.0348228 0.2293012 0.2349038 0.5802072 0.2214203 0.3147424 -1.995215 -0.2455441 -1.99008 4.313044 4.514209 6.210801 0.5916034 0.8193997 1.531385 -0.3456346 -0.325327 -0.6551056 0 0 0 0 0.75 -0.03063863 0.1192141 0.024316
10 -0.1970892 0.1970892 -0.5113481 -0.003699278 -0.06584105 -0.1186721 -0.03007331 -0.05385514 0.9201579 0.1701885 -1.463285 -0.06966025 0.1818645 -0.8877935 -1.701033 0.3062713 -0.9558414 -0.684867 1.18397 2.749684 -0.1338796 -0.1842547 -0.5618853 0.3804317 0.4832369 -0.1170804 0 0 0 0 -0.2496353 -0.0413304 0.8 0.1650189
11 -0.4498538 0.4498538 -0.2218517 -0.1590219 -1.2791 -4.185741 0.5063933 -0.8253671 0.6049174 0.09419692 0.2695882 0.3011255 0.2002331 0.610663 -1.9921 -0.2423098 -1.990444 3.606654 3.967807 4.347324 1.239917 1.446426 0.6372909 0.003817494 0.2775087 -0.1735314 0 0 0 0 0.75 -0.1921032 0.2723666 0.07236861
12 -0.1502949 0.1502949 0.05597221 0.05664657 0.05205541 0.2683072 0.09916968 -0.3412233 0.9740598 -0.02231222 -0.4176631 -0.06384716 0.004874884 0.4333193 -0.9777835 -0.3205796 -1.966451 0.399761 0.1303103 -1.255483 -0.2660299 0.04193666 0.5512687 0.6172974 0.6251208 0.6196907 0 0 0 0 -0.1041785 0.1384747 0.0986776 0.00463928
13 -0.4011732 0.4011732 -4.308573 0.0198514 6.860027 -0.9807619 0.1363407 6.77167 1.376877 0.3921745 -0.2311619 1.052938 0.3603578 -0.1531321 -1.967054 -0.2415888 -1.918459 4.184249 2.427204 1.325762 0.2786066 -0.02051744 4.198335 -0.7587936 -0.3367543 -1.686299 0 0 0 0 0.75 -0.01658969 0.2007372 0.06189749
14 -0.2998531 0.2998531 -2.722693 0.2291634 1.608257 -5.189575 0.5724532 0.5434002 0.9652699 0.1756653 -0.6980829 0.2096699 0.1706699 -0.1991365 1.918795 -0.302322 -1.986677 2.082822 2.856669 3.037053 0.4445969 0.04418903 1.716852 0.1624135 0.02628192 -0.7749159 0 0 0 0 0.75 0.06072042 0.4972871 0.05014032
15 -0.1521523 0.1521523 0.3213131 -0.03594344 0.6162874 1.908052 -0.04516862 2.151649 -0.6075021 0.08979652 0.07077761 0.3429896 0.04053247 0.1664292 -1.857342 -0.310231 -1.79034 0.3507624 0.5290159 -1.286801 -0.2291012 -0.3596592 -0.2539764 -0.2751579 -0.1017979 0.9017146 0 0 0 0 0.3220577 -0.02079489 -0.0007205014 0.02708145
16 0.0005204092 -0.0005204092 -1.201036 -0.02116477 -0.8666497 -0.06502961 -0.02457762 0.2663859 0.02145334 -0.04992503 0.009981128 0.2319852 -0.1221392 0.6153622 -1.245781 -0.130937 -1.871538 -1.038072 -0.9723427 -0.8935312 0.241594 0.1773114 0.3332564 0.3551752 0.876625 1.035957 0 0 0 0 0.0514766 -0.1479104 0.002756921 0.01607251
17 0.09999035 -0.09999035 0.0285254 0.03815971 0.7403688 -0.5828812 0.01914953 -0.1180827 -1.629719 0.1443592 1.04326 -2.669013 0.3146747 0.279279 1.573272 -2.620144 2.609847 -1.197139 -0.07011976 -1.078447 -0.1439082 -0.02785737 0.1304634 -0.03304354 -0.4498526 -0.6126846 0 0 0 0 -0.2321394 -0.1234135 0.7796992 0.01065196
18 -0.3996971 0.3996971 -0.08756751 0.1595008 1.197533 6.78276 -0.332354 0.5983774 1.163377 0.4644456 0.1505014 1.157832 0.4138308 0.5221389 -1.992656 -0.2448186 -1.991564 0.4064415 0.90606 1.841784 1.470883 1.114848 0.8935518 -1.002279 -0.6549004 -2.310057 0 0 0 0 0.75 0.02833279 0.2587628 -0.1168712
19 -0.3996235 0.3996235 1.75712 -0.526655 -3.338111 6.102232 -0.2642387 -4.416151 0.9226358 0.257374 0.2800165 0.8510095 0.2705775 0.4888414 -1.996185 -0.2460141 -1.990392 2.031793 2.920185 3.236228 0.3733095 0.9290246 2.034042 -0.4336105 -0.5873738 -1.898423 0 0 0 0 0.253709 0.1526856 -0.05387805 0.196652
20 -0.3515853 0.3515853 -2.647913 -0.4252354 -3.814322 -1.053495 -0.4653017 -5.854691 1.202578 0.3536476 1.002978 1.422558 0.4209716 0.7759254 -1.997455 -0.2486244 -1.990859 0.3896131 1.319183 0.802181 0.1244699 -0.3381565 1.546747 -0.6406607 -0.2161393 -1.259078 0 0 0 0 0.75 0.2313686 0.417317 -0.02710658
21 -0.01230243 0.01230243 0.3383433 -0.01132403 1.226663 0.3378402 -0.09616722 0.2300786 -0.8414768 0.04903348 -0.06222359 -1.746003 0.03947156 0.02603204 -0.1391521 -0.1158064 -1.011941 0.7646805 1.04368 -0.4953045 -0.1945533 -0.1808049 -0.5324239 -0.07535082 -0.2490635 0.2196818 0 0 0 0 0.135048 -0.02294864 -0.0744218 -0.003365217
22 0.0457188 -0.0457188 0.7489341 -0.06094243 0.5483827 0.4880329 -0.1322169 0.1820085 0.3866575 0.04090143 -0.7985662 -1.475958 0.1292193 0.9824339 -0.4919127 -0.334792 -0.9034569 -0.6161714 0.05630063 -1.287504 0.2248872 0.692898 1.0807 0.3431147 -0.1137849 -0.05809219 0 0 0 0 0.1090705 0.2034929 0.0009131467 -0.008854157
23 -0.06132503 0.06132503 1.062668 0.009545884 -0.9880407 -0.2452722 0.05700635 0.8593694 -0.1862952 0.05408881 -1.017228 -0.3434094 0.09297326 -0.4940873 -0.4528353 -0.1418057 -0.9945564 -0.19861 -0.684518 0.1133236 0.2832665 0.2433044 0.2517658 -0.2649141 0.1158108 1.557686 0 0 0 0 -0.1602927 0.19113 0.1027902 0.1481283
24 0.05125056 -0.05125056 0.2166371 0.01532022 0.1509482 0.1640859 0.0170875 0.7306468 -0.1674717 -0.009822033 -0.05883949 -2.127089 0.06877292 -0.03321701 -1.345019 -0.4104858 -0.7193864 -1.459314 0.6711491 0.00670474 -0.1370416 0.03132988 -0.2250634 0.7414982 -0.01238071 -0.110788 0 0 0 0 0.02509569 -0.1305672 -0.04884093 0.1071345
25 -0.3000231 0.3000231 0.7611832 0.02787489 0.06670087 -0.1313526 0.1418892 0.4136765 0.03090936 0.21565 0.6351498 -0.7573376 0.2938912 -0.317508 -0.9895976 -0.4064033 -1.958589 1.835083 1.232214 0.8560331 -0.2464638 0.1666195 0.2593536 0.6669758 0.6683263 1.180353 0 0 0 0 -0.2499542 -0.1784109 0.8 0.04420945
26 -0.401505 0.401505 2.557736 -0.03789599 -6.756986 3.883778 0.2340593 -6.773234 0.3358127 0.1863501 0.2444479 1.038755 0.1676023 -0.195289 -1.980791 -0.238837 -1.961136 3.830782 4.312414 2.878335 0.7841502 0.1898171 1.141627 0.0642752 0.03927324 -0.6502969 0 0 0 0 0.75 -0.0779304 0.1873812 0.01196451
27 -0.400424 0.400424 -0.9016257 -0.006940347 -3.923954 4.401088 0.01586865 3.203866 1.244193 0.1784522 0.992586 0.8794494 0.162135 0.2820863 -1.961034 -0.2395542 -1.959581 5.730141 4.368234 3.673247 0.5780001 0.022166 -0.2515057 0.01040914 0.352714 -0.6805556 0 0 0 0 0.75 -0.02621094 0.2455661 -0.04258654
28 0.1459946 -0.1459946 -0.5994812 0.0281901 -0.3001449 -0.6802794 -0.02107885 -0.174377 0.5323862 -0.05220206 -0.1659626 1.060235 -0.1723857 -0.5179228 -0.9235059 -0.3623364 -1.717702 -1.833268 -0.08009075 -1.047017 -0.34872 -0.2714282 -0.3251067 -0.1530901 -0.1472729 -0.1269945 0 0 0 0 -0.1013678 -0.09289744 -0.08827626 -0.07162887
29 -0.2997287 0.2997287 0.704331 0.07886368 -0.1659932 0.695282 0.2027514 0.3883286 0.3690857 0.20606 -0.004943234 -0.06641373 0.2279986 -0.664462 -1.973009 -0.2650798 -1.985555 3.399914 0.8274266 1.629377 0.1347867 -0.2205269 -1.211093 -0.4984548 -0.6373054 -0.6247332 0 0 0 0 0.003732249 0.002121856 0.05285437 0.002442363
30 -0.2999497 0.2999497 1.702581 0.02027834 2.390176 1.733068 0.02779443 -0.471749 0.8388153 0.2417192 -0.2051107 0.1086693 0.183002 -0.767517 1.070974 -4.488006 3.966749 0.5155325 -0.7055639 0.74186 0.09140284 -0.5051221 -0.5028226 0.6871748 1.141826 0.6547606 0 0 0 0 0.2580316 -0.0341297 -0.02693182 0.05890134
31 -0.4005376 0.4005376 -0.954683 -0.6804359 -2.017183 -0.1519104 -0.7232344 -0.9733834 0.8019013 0.186045 -0.07733871 0.9835236 0.1837225 0.004259388 -1.992512 -0.245217 -1.994696 5.514224 5.903599 6.026864 1.351649 0.7998625 -0.3083683 -0.09923202 0.05838063 -0.4127955 0 0 0 0 0.7499313 0.1887368 0.8 0.7932754
32 -0.2499778 0.2499778 -2.002293 -0.7192697 0.06916528 -2.288105 -0.68251 0.4232897 1.758862 0.4170565 0.7381765 1.662708 0.3579129 0.5121682 -1.801072 -0.2826106 -1.98659 2.866408 0.7056909 -1.088331 0.4044381 0.4488959 0.8072016 -0.5622538 -0.4429885 -1.560974 0 0 0 0 0.75 0.01994801 0.7585477 -0.01747767
33 -0.08968012 0.08968012 0.6537088 -0.07835212 0.4208294 1.002988 -0.05128495 0.4248367 0.1444454 0.07306111 0.5165553 0.2126876 0.03161983 0.4415079 -0.7452837 -0.005832843 -1.481295 0.2248057 -1.495006 -1.063334 -0.2486858 -0.2341109 -0.130479 0.05996441 0.2194901 -0.2550664 0 0 0 0 0.01992531 -0.01216146 -0.05130816 -0.04443427
34 -0.3438388 0.3438388 -1.642646 0.1163621 1.657433 7.249374 0.2032147 -9.589061 0.25372 0.1566506 -0.3509457 -0.04640521 0.1960243 -0.3572714 -1.994701 -0.2474681 -1.990521 1.075941 2.232859 1.156711 0.9894612 0.8956723 2.267545 0.06200698 0.1696833 -0.3305781 0 0 0 0 0.75 0.01290282 0.212479 0.2084769
35 -0.1400399 0.1400399 0.243939 -0.05056854 -0.5336873 1.447572 -0.120493 -0.005231927 -0.1680482 -0.0002423726 -0.4043545 0.9085354 -0.1003591 -0.1580085 -1.733572 -0.4528488 -1.339415 -0.1284544 0.258166 -0.7285136 -0.09559961 -0.3355718 -0.8626599 -0.109942 -0.2613703 -1.024046 0 0 0 0 -0.08350002 -0.007042176 -0.06140562 0.1074829
36 -0.2500527 0.2500527 1.803485 0.09497445 -1.378354 1.621833 0.1435406 -1.926136 0.698719 0.2316494 -1.32945 0.771398 0.1850217 -0.3811647 -1.99278 -0.2169679 -1.77388 3.421331 1.600379 0.220056 -0.03904021 -0.1133931 0.3081112 -0.3598472 -0.07076755 -0.445888 0 0 0 0 -0.25 0.01706433 -0.05338604 0.0003168283
37 -0.2450461 0.2450461 0.2183373 -0.1245747 1.534783 -0.9578211 0.1837913 3.958238 -0.1490732 0.1478079 -0.02934768 0.02865841 0.01733776 -0.2768204 -1.69193 -0.3711119 -1.579669 1.731326 2.980482 1.602477 -0.2225715 -0.5808836 -1.347817 0.1290053 0.5459467 0.3967176 0 0 0 0 -0.03156697 -0.03085927 -0.02330362 0.06757483
38 0.2029984 -0.2029984 0.2446539 -0.00519226 0.1245033 0.2914527 -0.08434116 0.3331454 -2.29026 0.171558 -0.05961011 -2.414337 0.2019775 0.005412539 -0.2321959 0.3852708 -1.200812 0.5822494 -1.366234 -1.455863 0.1501071 0.5609953 1.025419 -0.1605687 0.1697004 0.2885383 0 0 0 0 0.1096218 0.05886838 0.0167148 0.2673815
39 -0.3503223 0.3503223 0.07042957 0.2132533 -4.033149 -2.223354 0.3395995 -0.3684242 0.7966815 0.1818514 -0.3363614 -0.03298245 0.225369 0.05265216 -1.996566 -0.2499861 -1.998741 7.920236 5.857559 5.834975 -0.1956387 -0.4172808 -1.501169 -0.02258392 0.1193719 -0.7050442 0 0 0 0 0.4159492 -0.1310976 -0.1445996 -0.01854962
40 -0.4500205 0.4500205 -1.973085 0.4566296 1.192637 -8.355251 1.12446 1.302347 1.1898 0.2507956 0.02208154 0.1621109 0.2160725 -0.7088149 -1.968983 -0.2220584 -1.949986 1.293724 1.707586 2.484703 0.5364129 0.5461672 0.2962408 0.0191726 0.1138219 -0.7249925 0 0 0 0 0.75 0.1841461 0.3985792 0.011792
41 -0.4000025 0.4000025 1.27715 0.1762281 -1.667492 1.755562 -0.09949343 1.915851 1.068658 0.1838491 -0.1039643 0.8838294 0.1041313 0.03323437 -1.996716 -0.2482141 -1.991963 2.534273 2.153839 0.624923 -0.0464786 -0.122809 0.4267421 -0.08770728 -0.1338464 -0.7113872 0 0 0 0 -0.25 0.03186064 -0.0992908 -0.01220711
42 -0.1499555 0.1499555 -1.297849 0.08825715 -0.1304125 -1.315734 0.02492323 -0.2444636 0.07098992 -0.006029915 0.08706996 0.6518279 0.02178765 0.6826982 0.9954699 -0.7299545 -0.5368903 -0.78854 0.8208737 -0.1822428 0.08585281 0.2286453 0.2941931 0.8749155 1.093808 1.929946 0 0 0 0 -0.104119 -0.06463538 0.04616064 0.163175
43 -0.2500079 0.2500079 1.306362 0.01134319 1.543489 0.3372623 -0.0148626 -0.4221576 0.5515002 0.07465307 1.341072 0.8353244 0.07116655 0.4839104 -1.52668 0.0205828 -1.843016 4.58639 1.816108 2.368837 -0.5276637 -0.4866267 -1.173138 -0.3416041 -0.2272936 -0.03925869 0 0 0 0 -0.25 0.123841 -0.1412485 0.03395075
44 -0.4070325 0.4070325 0.1783278 -0.02317377 4.807704 -0.5139441 0.3145293 0.7382946 1.750984 0.4205878 0.03329723 0.5998587 0.4371432 -0.1747248 -1.989742 -0.2476193 -1.99647 0.1842474 0.5804633 1.592422 2.107318 0.06831568 -0.9116833 -1.053679 -0.695502 -1.60474 0 0 0 0 0.7499988 0.2393809 0.8 0.003305604
45 0.0006456945 -0.0006456945 -0.03197066 -0.001219642 0.3740303 0.9508861 -0.01337008 1.625419 2.552616 -0.1294828 -0.664253 0.2471485 0.03606551 0.5399713 -0.3809291 0.05069689 -1.0194 4.504528 0.6326154 -0.5954813 0.1546565 -0.009483184 -0.5928815 0.3583233 0.03024797 0.1578098 0 0 0 0 0.006107004 -0.04557071 0.04674791 0.01376565
46 -0.05803827 0.05803827 -0.5204066 -0.01372909 -0.5757393 0.013402 0.000189539 -0.4254404 0.3791501 -0.07438508 0.8072833 0.6054889 -0.05630688 -0.173631 -0.1597943 1.01342 -0.4783684 0.7837299 1.197375 -0.6783824 -0.2027537 -0.4379967 -0.853435 0.020459 -0.298617 -0.6384036 0 0 0 0 -0.1548512 -0.1436597 -0.08705127 0.07562078
47 0.0498403 -0.0498403 0.2529176 0.01531945 0.05183467 -0.3911654 -0.01317355 0.3336886 -0.4964763 -0.01166721 -0.2069557 -0.3024974 -0.09393246 0.3933831 -0.8539358 -0.8460619 -0.2512075 3.633325 1.01746 -1.201488 -0.1097328 -0.2397629 -0.2640386 -0.3846512 -0.30028 0.2325949 0 0 0 0 0.0008833693 0.2007788 0.06471984 -0.001227588
48 -0.1559787 0.1559787 0.5588843 0.05935472 0.4690783 0.5116949 0.003167544 0.9783702 1.175494 0.4623005 -0.3948335 1.5432 0.4189077 0.227455 0.0271675 -1.174445 -1.573831 1.754839 2.58677 0.8632207 -0.2641614 -0.7203769 -0.6740025 -0.2055939 0.2036477 -0.9331041 0 0 0 0 -0.25 0.284327 -0.05931103 -0.04349043
49 -0.3518711 0.3518711 -4.519335 -0.2301428 -1.072879 1.441921 -0.1914283 0.8317794 0.6217449 0.2824807 0.1771436 0.7494054 0.2160142 -0.02204125 -1.994972 -0.2443374 -1.960911 5.994331 7.269392 5.49688 0.5375889 0.602145 3.214452 -0.246821 -0.1906312 -0.6509621 0 0 0 0 0.75 -0.1827941 0.4219676 0.1037352
50 -0.1517209 0.1517209 -0.1437816 0.032875 1.381313 -0.2695399 0.03560806 0.6671753 -0.09628616 0.003169059 0.3673731 -0.273793 0.03607547 0.04672855 -1.958323 -0.4904157 -0.5358314 0.9891329 0.8782032 -0.3042544 -0.3499564 -0.4308966 -0.4592004 -0.1100992 0.1946892 0.5244474 0 0 0 0 -0.1055293 -0.01181731 0.01296613 0.009006998
51 -0.300029 0.300029 -2.847361 -0.4816743 -1.761703 -1.266799 -0.503465 -1.809075 2.690987 0.4557231 0.396598 1.571072 0.4651307 1.002124 -1.603431 0.0469984 -1.759571 0.9091518 0.7540146 0.252902 -0.3966019 -0.02519168 -0.0006739253 -0.7221317 -0.09645585 -1.30095 0 0 0 0 0.75 0.2501084 0.4328554 -0.07625733
52 -0.2000455 0.2000455 -3.88524 -0.5264282 -0.4866576 -2.214859 -0.478268 -0.7633673 1.436777 0.4707065 0.6946419 1.775111 0.4316139 1.042815 -1.871768 -0.1310431 -1.885596 1.529713 1.183994 -0.4851552 0.01778366 -0.05253608 -0.4470315 -1.046364 -0.9460793 -1.843169 0 0 0 0 0.75 0.03782598 0.3380286 0.00479179
53 -0.4499824 0.4499824 -1.93685 0.001434876 -3.476708 -0.9166858 0.2589639 -2.604099 1.618032 0.2287936 0.1051213 -0.03338438 0.2448528 0.3764903 -1.995407 -0.2503172 -1.98488 10.81754 5.245669 3.581939 0.1078218 -1.085338 3.015422 0.2843161 0.1739518 -0.7783223 0 0 0 0 0.75 -0.1283889 0.4984596 0.09140704
54 -0.200065 0.200065 0.1238339 0.003392092 1.094162 -0.01336705 -0.09703085 -0.2191226 -1.168583 0.07641321 0.01063084 -0.2139751 -0.004362168 0.1777217 -1.847818 -0.8985823 1.486792 -0.9079386 0.6612607 0.3291141 -0.0348612 -0.0006255357 -0.5516116 0.5262982 0.5229374 0.5684085 0 0 0 0 -0.08312452 -0.02998928 0.002254354 0.1581102
55 -0.1502687 0.1502687 -2.24302 -0.5000424 -0.4083506 -1.537929 -0.4922195 -0.4581963 1.823956 0.4806023 0.7217435 1.164306 0.5701236 0.9228516 -1.885994 -0.4174148 -1.22995 -0.4328226 0.5862721 -0.7675499 0.8299583 0.4855845 2.126913 -0.9076581 -0.6317717 -1.823683 0 0 0 0 -0.1062036 -0.1714467 -0.004164652 0.003181032
56 0.04139431 -0.04139431 -0.6057867 -0.005488968 -0.1650117 -0.02584055 -0.02414773 0.5304296 -0.8127636 -0.138171 1.013677 0.7669585 -0.1598461 0.3051872 -0.8443971 -0.2333437 -0.8563747 -1.12884 0.4483143 -0.6552522 -0.023768 0.3557784 0.5071775 -0.2532433 -0.1764115 0.1492368 0 0 0 0 0.01220957 0.0902685 0.01326305 -0.01255691
57 -0.4017137 0.4017137 -4.643533 0.001829249 -4.284117 -5.537734 -0.03740819 0.009740568 0.9393901 0.3594262 -0.4236177 0.60007 0.3626391 -0.01899866 -1.988388 -0.2352013 -1.970473 3.270615 2.837153 1.463709 3.117405 4.624767 8.769407 -0.8376708 -0.634184 -2.018874 0 0 0 0 0.0454931 0.1721061 0.8 0.09910074
58 0.0944757 -0.0944757 -0.07082832 0.0008661314 1.11864 0.07207518 -0.002375231 0.5083152 0.05752514 0.02729765 -0.05102472 -1.062312 0.01951879 0.4224613 0.3438571 0.1817934 -0.8565361 -0.3684213 0.2040737 -1.039829 0.003884848 -0.07340625 -0.103292 0.8703354 0.5077376 0.9066082 0 0 0 0 -0.005655101 0.1461679 0.0006578898 0.04448061
59 -0.2999862 0.2999862 0.8107294 0.01101883 -0.007072436 -1.042976 0.08071842 2.371246 0.2025159 0.0769531 -0.4351165 0.1400884 0.03976309 0.05452839 -1.900967 0.03696704 -1.015361 -1.263874 0.2894226 1.620337 -0.4310394 -0.5117757 -0.3325185 0.04129297 0.2417964 0.2639176 0 0 0 0 0.2517661 0.01309941 0.02754941 0.06326968
60 -0.3519242 0.3519242 -3.033948 -0.1554145 -2.350156 3.562955 -0.6289781 -6.21367 1.238917 0.3639358 1.034842 0.9571548 0.3524216 0.8743772 -1.987886 -0.2425887 -1.968005 3.830564 2.029392 0.8135735 1.418984 1.586795 5.450931 -0.4039173 -0.09889921 -1.099531 0 0 0 0 0.09483471 0.08153213 -0.007230789 0.007956492
61 -0.3489351 0.3489351 -1.828717 0.1624542 5.630803 -2.599424 0.25671 -0.8711899 0.40271 0.02731248 -0.4454681 0.9113367 0.09325378 -0.4811263 -1.996194 -0.247113 -1.992194 1.246963 2.738947 2.93305 0.4944243 0.3162239 0.4801286 0.6661336 0.9060331 0.7986551 0 0 0 0 0.4197898 -0.02164888 0.00684689 0.1460311
62 -0.004707148 0.004707148 -1.288137 -0.04678374 0.7508047 -1.352293 -0.06879382 1.546997 0.6677411 -0.08725356 -1.773498 1.61034 -0.05456307 -1.25906 4.043529 2.05392 -1.031678 -1.131682 0.9411669 1.515956 0.6172858 0.5126564 1.850029 0.353661 -0.0857241 -0.7689768 0 0 0 0 0.1064394 0.03516465 0.061712 0.05301194
63 -0.3505434 0.3505434 -0.4807822 0.03339299 0.3665129 0.792994 0.04150818 1.140523 0.6749109 0.1585784 -0.4466088 1.047926 0.07676176 0.1830331 -1.873237 -0.1568272 -1.928381 4.224031 1.998402 2.003141 0.264712 -0.02382196 -0.6586647 0.1064204 0.3673743 0.1705561 0 0 0 0 -0.25 -0.06950335 -0.143094 0.01616853
64 -0.4492505 0.4492505 -1.527964 -0.3473753 0.204275 3.996346 0.2033582 0.279403 0.5059456 0.3427505 0.4691213 0.7040358 0.380423 0.5740563 -1.989977 -0.2533168 -1.986191 4.441945 3.414796 2.213069 1.627391 -1.650448 1.805409 -0.295651 0.01090942 -0.8746582 0 0 0 0 0.75 0.002126042 0.287722 -0.0584935
65 -0.400035 0.400035 2.118936 0.02579315 -0.3078466 -0.3242271 -0.02495887 2.416912 -0.3950153 0.2818356 -0.4889708 -0.3020104 0.3378029 -0.2938305 -1.997326 -0.2477648 -1.996284 4.227374 3.734876 3.197074 0.07794761 0.1906118 -0.5016007 -0.02204847 0.1401875 -0.2599604 0 0 0 0 -0.25 -0.08158109 0.03510164 -0.06223605
66 0.04874575 -0.04874575 0.4729156 -0.02262697 0.05775994 -0.03074061 -0.05673121 -0.4503644 -0.2998647 0.004925795 -0.1441734 -1.460459 0.1604744 -0.2349047 0.1663288 0.7463539 -0.2065408 -1.79308 -0.7063316 -0.7770502 0.003205438 0.2252567 0.4959446 0.1357364 0.9164226 0.2731065 0 0 0 0 0.3085754 -0.01754258 0.03314626 -0.03774378
67 0.0674457 -0.0674457 0.6965626 0.03222163 0.4187664 0.8186624 -0.01124359 0.5704015 -0.8375604 0.04017331 0.5715167 -0.2768177 0.1070811 -0.3629006 -0.8715111 -0.6111609 -0.9702648 -0.2107144 -0.1508872 -1.551585 0.3714926 0.07118779 0.1782821 -0.5830174 -0.484207 -0.393662 0 0 0 0 -0.04211253 0.05927076 -0.03357692 0.02035286
68 0.2501104 -0.2501104 -0.4725834 -0.02831393 -0.01295482 -0.2061137 -0.03338733 0.05652712 -1.377459 0.08639995 1.957446 -2.31694 0.1587529 0.7126034 0.4077189 0.09040801 -0.4340139 -1.931374 -0.4843679 -1.118583 0.1521161 0.03615256 -0.127806 -0.5088144 -0.9086586 1.620424 0 0 0 0 -0.04678726 0.1503336 -0.004211914 -0.03020885
69 -0.4499015 0.4499015 -2.848862 0.7780174 2.968335 -2.345744 0.2433011 -1.23693 0.1114211 0.3368399 -0.4887435 0.1484969 0.3080841 -0.09883036 -1.993336 -0.2434772 -1.986804 5.0546 3.874973 3.564038 0.8018683 1.01514 1.491264 0.3616393 0.6253925 0.6307466 0 0 0 0 0.75 -0.07532507 0.3600113 0.02441358
70 -0.09900891 0.09900891 1.460934 -0.02111146 -0.04622099 -0.5027119 -0.06155954 -1.132112 -1.236487 0.1417948 0.7485379 0.6308082 0.05412041 0.9252538 -1.806684 0.03264203 -1.553403 0.8881273 0.9116092 1.521162 -0.2100561 -0.2468443 -0.7706479 -0.1650518 0.03321044 1.612097 0 0 0 0 -0.009594482 0.01220089 0.08716199 0.08389842
71 -0.3523835 0.3523835 3.547449 -0.2398365 0.1510044 -0.9592293 -0.1814901 -0.8501599 0.5192049 0.2892196 0.3993592 1.106064 0.224012 0.4841587 -1.995021 -0.2479432 -1.990275 1.944114 2.974179 2.625018 0.4228939 -0.3118566 0.6329242 -0.3918819 -0.4599305 -0.9949153 0 0 0 0 0.75 0.1723993 0.227419 -0.01238019
72 -0.004580838 0.004580838 0.329189 0.01097438 0.1243252 0.3595385 0.02954671 -0.7444859 0.007753908 0.09236385 -0.07558431 -0.3966978 0.1112599 0.5826364 0.3231793 -0.1411154 -1.988403 -0.6401742 0.03776724 -1.202987 -0.1791931 -0.144664 -0.4684916 -0.72617 -0.6372263 -1.843766 0 0 0 0 -0.05722597 -0.04266128 -0.04472431 -0.08068812
73 -0.001225682 0.001225682 0.2439535 0.02868228 -0.02049237 0.4604606 -0.01836699 -0.392148 -0.7599757 0.07970706 -0.02497161 -2.256314 0.1636976 -0.2998873 -0.02665757 0.1788316 -1.27834 -0.7240754 -1.026127 -1.224032 -0.1923391 -0.200083 -0.4570957 0.6316707 0.7588509 2.107727 0 0 0 0 -0.05192952 -0.02876997 -0.08579534 0.0821987
74 -0.1511148 0.1511148 -0.3829902 0.005862508 0.2342807 0.1744892 0.005149787 0.7333031 0.2616206 0.01974266 0.003608526 0.9536659 0.0362688 -0.2331114 -1.097194 0.6829052 -1.032068 1.349017 0.1588075 1.274112 -0.09976072 -0.169097 -0.4517015 0.2001219 -0.09532927 -0.3727166 0 0 0 0 -0.1097765 -0.08947812 -0.04346179 0.1229908
75 -0.03527257 0.03527257 0.3762175 -0.05252101 0.6838411 0.5233983 -0.05841938 -0.4259887 -0.8612178 0.1472435 0.008754854 -1.88058 0.1657148 1.087812 -1.628664 0.07809032 -1.032858 -0.9595873 -0.1133434 -1.299261 -0.2497767 -0.1631555 -0.3266998 -0.1127065 -0.37734 -0.5070017 0 0 0 0 -0.1105921 0.1966334 -0.07022247 0.04397197
76 -0.3997748 0.3997748 -5.968074 -0.6670802 1.525789 -4.019825 -0.5146292 -0.5734385 0.8912291 0.3329513 1.165625 1.259963 0.2840758 0.5249574 -1.989749 -0.2443242 -1.991302 5.509576 3.415465 1.369021 1.907749 0.8569156 0.5030423 -0.2919968 0.1502961 -0.5583631 0 0 0 0 0.2545523 0.1558784 0.01248874 0.08303319
77 -0.3999958 0.3999958 -0.1146637 0.1185142 -1.337691 1.837075 0.1235267 -0.7042594 0.2222622 0.2746712 -0.9080956 0.4115495 0.3059284 -0.1052146 -1.996739 -0.2488678 -1.998255 0.6071482 1.07772 0.2389575 0.2630526 -0.2911009 -1.340507 -0.1078813 0.05682439 -0.207238 0 0 0 0 0.7478393 0.03144691 0.8 -0.01352237
78 0.002117534 -0.002117534 0.04900011 -0.04099006 0.03642225 0.4326997 0.001416743 0.1260039 0.2551989 0.04297427 -0.5566288 0.351623 0.05432921 -0.06162888 -1.341467 0.1754012 -0.04817669 -1.521034 0.3532339 -0.3844508 -0.2968938 -0.1909149 0.0583599 0.9058526 0.8833562 1.264683 0 0 0 0 0.05672432 -0.2483922 -0.008221351 0.7981413
79 -0.04648409 0.04648409 0.8670058 -0.01254958 -0.7208904 -0.5302501 0.005626049 0.1648873 0.7239325 -0.08076831 -0.7398544 1.040673 -0.1964221 -0.2369222 0.2612842 -0.6627698 0.4592166 0.3920528 -0.07392574 -0.7700699 0.9652074 -0.4926831 0.7194103 0.5775541 0.3938973 0.7851639 0 0 0 0 -0.08044404 0.1107084 -0.03803782 -0.0001849206
80 -0.04994201 0.04994201 -0.3477825 0.01982676 -0.4307241 0.8199907 -0.00197505 0.2856614 -0.2224005 0.03292673 -0.2290564 -0.1580293 0.1095437 -0.02544363 -1.111743 -0.6246297 -1.832303 -1.393405 -0.1245996 -1.535012 0.1244632 0.3087747 0.06550663 0.01251692 0.2227136 1.450918 0 0 0 0 -0.1386642 -0.2406109 -0.02996879 0.8
81 -0.2999693 0.2999693 1.740265 -0.007123683 -1.068056 -0.6357521 0.09271254 1.014366 -0.2027941 0.08629896 -0.7577337 0.8084978 -0.04874802 -0.08907548 -1.935611 -0.1894485 -1.780298 0.09166951 -0.01859896 -0.5359616 -0.1212523 0.4958126 0.7924502 0.3281272 -0.148762 0.05103525 0 0 0 0 0.251421 0.02706449 0.04247607 0.1037412
82 -0.05049922 0.05049922 -0.5917683 0.03909882 0.04968746 -0.3477295 0.1181016 0.706486 0.4600012 0.06624224 -0.1364668 -0.05405269 0.005944325 -0.02646268 -1.49026 -0.7696299 -1.43369 0.471496 1.543732 1.032766 -0.2149717 -0.1350881 -0.3986866 0.4964767 0.3438032 -0.5614976 0 0 0 0 -0.1201614 0.2047958 0.3435218 -0.03287872
83 -0.3964166 0.3964166 -1.032702 -0.03612647 -1.659764 -0.3663958 0.102229 -0.6063839 1.109494 0.133477 -0.6105077 0.5122188 0.1344957 -0.3728062 -1.997948 -0.2478442 -1.997183 4.066207 3.562516 4.177183 -0.5287178 -0.1930437 -1.221205 0.07187438 0.0581645 0.09205591 0 0 0 0 0.2673597 0.01631688 -0.08681395 0.1135516
84 -0.1514962 0.1514962 0.863071 0.01431362 0.9414304 1.482915 -0.004174399 -0.7257173 -0.6697866 0.00117637 -0.0518695 0.7036779 -0.08758994 -0.1931763 -1.143314 0.239611 -1.233405 0.04471218 0.7122318 -0.5012332 -0.4299004 -0.3800794 -0.09731585 -0.08709326 0.07662626 -0.3756526 0 0 0 0 -0.1107465 0.004005108 -0.08199325 0.001955522
85 -0.3004758 0.3004758 -3.059855 0.2292978 2.30932 -4.809067 0.1410428 4.780645 -0.262846 0.2343946 -0.9476562 -1.121334 0.2748597 -0.3788687 -1.999189 -0.2492706 -1.997691 6.450143 6.059453 4.493882 -0.5955965 -0.3654724 -1.079191 -0.4003679 -0.2453682 -0.980177 0 0 0 0 0.4994047 -0.1867951 -0.1321286 -0.09213025
86 0.1507649 -0.1507649 0.003948499 0.03659588 0.1386588 -0.4074737 0.03674 0.1247667 -0.8262804 0.008698466 0.1480405 -1.422727 0.07682907 0.4538807 -0.6749602 0.8669931 0.866076 -0.6775671 -0.6359453 -0.0913966 0.03986388 -0.1245323 -0.4158944 -0.4558164 -0.4518444 0.9885379 0 0 0 0 0.002843312 0.1940501 0.05383281 0.005936443
87 0.2004156 -0.2004156 -0.6703213 -0.009262255 -0.250255 -0.5933022 0.03572095 -0.230911 -0.7650148 0.1448459 -0.07572133 0.01156258 0.1932069 -0.5708988 -1.328828 0.007974261 -0.4636 0.4597661 -2.431385 -0.02597178 -0.006885529 -0.02278778 -0.1520943 -0.1808539 -0.1651682 1.034743 0 0 0 0 -0.03553538 -0.25 -0.1100555 0.01477441
88 -0.3045852 0.3045852 -1.366824 -0.5238889 0.1019777 -2.243032 -0.167169 -4.109049 1.94921 0.3581411 0.713581 0.9330144 0.2836665 -0.7563097 -1.991775 -0.2501878 -1.989743 5.162985 5.670126 5.787349 0.9051459 -0.06605847 2.571946 -0.3140656 0.2674645 -0.3477626 0 0 0 0 0.742868 0.07505892 0.8 -0.04240956
89 -0.04697604 0.04697604 -0.5800726 -0.01126749 -0.14077 -0.09290453 -0.04174645 0.4900673 0.7151257 -0.07658577 -1.511168 -0.7885206 -0.006006215 -0.02673881 -1.279522 0.7328147 0.09393723 2.596233 0.3251738 1.362576 -0.04375713 -0.002237522 0.2175428 -0.6054625 -0.2894816 -0.1012183 0 0 0 0 -0.02113199 0.1089161 -0.001381626 0.03399637
90 -0.3553464 0.3553464 1.97359 -0.6872625 2.229217 -1.695201 -0.6990494 5.731192 1.877544 0.3999969 0.6717976 1.146925 0.4200143 0.4778733 -1.992379 -0.244207 -1.981669 0.7822441 0.7448252 0.6058283 2.278336 2.078437 5.069415 -0.4662927 -0.1201125 -1.325264 0 0 0 0 0.75 0.1219571 0.4057716 -0.0104203
91 0.00144098 -0.00144098 -0.203622 0.09642423 0.08437687 -0.7323932 0.05675701 0.2298751 -0.4102386 0.08124417 -0.4076544 0.9317367 0.05697125 0.005438815 -0.6252593 -0.02262227 -1.540667 -0.8889202 -0.0238589 -0.7349063 -0.269388 -0.3178519 -0.681921 -0.6679267 -0.6879883 -0.6592019 0 0 0 0 -0.04472251 0.05130757 0.01961316 -0.01864086
92 -0.1500449 0.1500449 0.379254 0.003368667 0.5691458 -0.5671589 0.007168914 -0.2842536 -0.6561192 -0.000492173 -0.4151766 -0.8711864 -0.03791857 0.09684328 -1.720248 -0.09454564 -1.899782 -1.66058 -0.6397726 -0.7898702 -0.12775 0.07206454 0.3780631 -0.6969073 -0.7307467 -1.172367 0 0 0 0 0.749342 -0.01434421 0.6474176 -0.02858248
93 -0.2998757 0.2998757 0.2460543 -0.06852835 -0.09383437 -1.202805 0.01058438 2.308311 0.5713854 -0.0808793 -0.2477323 1.175185 -0.1473084 -1.319004 -1.463173 -0.2928404 -1.662394 0.0739527 0.4120491 0.48342 0.2854847 0.004442982 -0.7609011 0.6158482 0.5194309 0.1832776 0 0 0 0 -0.2493368 0.1220098 -0.1510635 0.04271151
94 -0.4499563 0.4499563 -2.436032 0.5279231 -2.772526 -0.7351814 0.3859846 -2.69903 0.8930903 0.1782643 0.2867514 0.5685191 0.1447934 0.2190425 -1.989942 -0.2364165 -1.93455 2.031505 2.319743 2.276896 -0.5519116 -0.0487208 1.508493 -0.1910387 -0.4169506 -0.7496951 0 0 0 0 0.75 0.08457642 0.04247969 0.06319814
95 0.1997827 -0.1997827 0.1224177 -0.005788487 -0.1884481 -1.036525 0.01395657 0.05499865 0.1646643 -0.1580804 -0.6654433 -0.7794737 0.0451761 -0.4193148 -0.8989262 -0.5937957 0.8011713 -1.79221 -0.3326226 -1.954279 -0.1202667 0.09998265 -0.04587939 -0.417383 -0.7624298 -0.7529745 0 0 0 0 0.03557345 0.2505538 -0.08200184 -0.07833663
96 -0.3508332 0.3508332 0.6272321 0.171304 1.032626 2.06271 0.2366143 1.077522 -0.3112898 0.3295667 0.3044672 -0.697561 0.3584418 0.5214806 -1.997515 -0.2496828 -1.992692 2.672815 2.258074 2.303864 -0.1371088 -0.1885781 -0.3301819 -0.8698888 -0.4801997 -1.438636 0 0 0 0 0.08329711 0.4741559 0.1019846 0.02299399
97 0.0495848 -0.0495848 -1.829394 -0.3878019 -1.848979 -1.916739 -0.3620858 -1.028067 1.938045 0.552789 1.096104 1.57854 0.5166722 1.080777 -1.571195 -0.5284428 -1.799888 -0.809896 0.6351057 -0.8557693 0.002055719 0.2171355 0.3267482 -1.208618 -0.8957756 -2.424094 0 0 0 0 0.75 -0.2222146 0.1265606 0.7855702
98 -0.4010071 0.4010071 0.4348256 -0.2315534 5.282225 -1.200792 -0.02263132 4.001429 0.05753786 0.3396109 0.3092178 -0.4728645 0.3346714 0.05975905 -1.976883 -0.2328532 -1.974 4.975238 4.56956 4.035829 0.4066389 0.3193918 -0.2457859 -0.8563685 -0.08779914 -0.7684816 0 0 0 0 0.75 -0.1388177 0.09100419 -0.1043846
99 -0.2000218 0.2000218 0.3484964 0.03560624 -0.1778376 -0.8389202 0.04120515 -0.4604543 0.2668895 -0.003590663 0.7699665 0.8292172 -0.1457501 -0.3612063 -0.8301491 0.08737851 -0.7623449 0.3419584 0.9580571 0.06383347 -0.2269004 -0.2853779 -0.732029 0.8154154 0.966098 2.50891 0 0 0 0 -0.25 -0.1532034 -0.02223231 0.1644217
100 0.003353989 -0.003353989 0.04562819 0.01975988 -0.5077601 -0.9908962 0.0307753 0.191207 -1.269629 0.02802639 1.04899 1.148938 0.04963491 -0.4954165 0.1594719 -0.2616433 0.04783427 0.09298173 -0.846216 2.323377 -0.1799756 0.01413165 0.3900949 0.4725629 0.7236487 0.330425 0 0 0 0 -0.2479778 -0.04411786 0.7994945 0.0570838
