1 0.0002291373 -0.0002291373 0.01697243 0.01464345 0.1714222 -0.0008475988 0.01192388 0.01007071 0.08797124 0.0140423 -0.07339086 0.06564958 0.02705363 -0.1325582 -0.3242084 -0.2102264 0.1189154 0.1265106 -0.1361774 -0.2156298 -0.03133838 -0.03826977 0.22495 0.06588189 0.1952169 0.3517274 0 0 0 0 -0.007767419 -0.008010109 0.02223348 -0.007392476
2 0.001538258 -0.001538258 -2.539831 -0.4566369 -0.7844891 -1.567303 -0.4563203 -0.9836492 1.805043 0.493418 0.9215095 1.278857 0.496476 0.9452305 -0.06394453 -0.3465172 -0.5831782 -0.1509573 -0.3818427 0.4392417 0.8234416 0.6557131 1.975594 -0.9518238 -0.6284714 -1.865936 0 0 0 0 0.1132938 -0.0251375 0.03629037 0.02253422
3 -0.4777825 0.4777825 1.872788 0.1728548 -1.287969 1.124139 0.4690914 2.167011 0.8553719 0.2639854 0.5812359 0.7250276 0.2713471 0.6185891 -1.390889 -0.7869394 -1.517247 4.406429 3.907546 3.741731 0.7248764 -0.1799172 -0.767269 -0.1698689 -0.03830308 -0.856271 0 0 0 0 0.75 -0.00763479 0.3104384 0.008811266
4 -0.1200394 0.1200394 -2.286066 -0.4806863 -0.8746099 -1.833242 -0.4465582 -1.01184 1.527349 0.4843524 1.06012 1.183564 0.515796 0.8778461 -0.2755766 -0.06371301 -0.852977 0.5024575 0.3999968 0.1057129 0.2854158 0.09874764 0.3580743 -1.003304 -0.6182105 -1.816005 0 0 0 0 0.7499223 0.1912437 0.5268429 -0.06859815
5 -0.04508195 0.04508195 -1.780884 -0.4819137 -0.9489333 -1.490453 -0.4871966 -0.8334299 2.093839 0.5039866 1.130647 1.389667 0.5109168 1.004483 0.273502 -0.0167556 -0.660614 -0.3453808 -0.09479921 0.604912 0.856318 0.4572513 1.818534 -1.1227 -0.7839432 -2.084939 0 0 0 0 -0.009612228 -0.002031005 -0.009834658 -0.03076488
6 -0.001370729 0.001370729 0.1388592 -0.03388088 -0.07580862 0.1160904 -0.01596195 -0.09643445 0.3839845 -0.01384783 -0.003214148 0.07464983 -0.02487543 -0.1824847 -0.2085055 0.1338496 -0.1159396 -0.1892389 -0.1240109 -0.2090607 0.0604185 0.0148003 0.01588637 0.08390411 -0.02998621 -0.2547029 0 0 0 0 -0.07785453 -0.04833185 -0.01862473 0.01068838
7 -0.06614268 0.06614268 -0.3383043 0.02174224 -0.1341162 0.2125683 -0.004815418 0.298394 -0.002401154 -0.001066213 0.1269776 0.1873556 -0.004855148 0.1988597 -0.1222311 -0.1654254 -0.2217062 -0.2560833 -0.4152019 -0.5067182 -0.1336211 -0.1007401 0.01972159 0.2061682 0.2368362 0.06553252 0 0 0 0 0.0319442 -0.01310284 -0.003481983 0.0038519
8 -0.004955303 0.004955303 -0.232632 0.01765945 0.2242218 -0.1711407 0.008488689 0.1489043 0.2457367 -0.03764564 -0.08650635 0.1033424 -0.04628476 -0.02322345 0.2669089 0.08437787 -0.2008394 0.1737322 0.3310066 -0.08592119 -0.03898921 0.007903299 0.1450802 -0.1183689 -0.0451501 0.1215242 0 0 0 0 -0.05003531 0.002709317 -0.02010186 -0.009024406
9 0.01921617 -0.01921617 -0.09141271 0.004957388 -0.08291535 0.1385506 -0.03029476 0.04648314 -0.3812991 0.005624932 -0.07992966 -0.1644531 -0.01614848 -0.240591 -0.1782682 0.1111339 0.6032489 0.1808243 -0.1929646 -0.8764083 0.05048406 0.05813498 0.0756589 -0.04377873 -0.1077802 -0.1531464 0 0 0 0 -0.03358694 -0.0239466 0.0008574959 0.01057409
10 0.03245638 -0.03245638 -0.282643 0.0255772 0.2107266 0.1738715 0.04589579 0.1342376 -0.1436553 0.01376446 -0.04940894 0.126011 0.02842105 0.003797645 0.1176826 0.0416078 -0.4896285 -0.5460887 0.2399453 0.1850426 -0.02826228 -0.0004455369 -0.03430297 0.02280865 -0.01961519 0.1390426 0 0 0 0 0.07094923 -0.04159047 -0.02211964 -0.01679484
11 -0.004452119 0.004452119 -0.1123367 -0.004910247 0.1194318 -0.3100319 0.02694318 -0.3488657 0.09164054 0.02029838 -0.02394479 0.1452079 0.006942474 -0.1550678 -0.06185254 -0.1022475 -0.135613 0.29159 0.04254254 -0.3861528 -0.05972252 0.04241206 0.08827841 0.1378508 -0.05390576 -0.128751 0 0 0 0 -0.0242263 -0.03277889 -0.009822762 0.05414422
12 -0.03105938 0.03105938 -2.029335 -0.510761 -0.9243084 -0.8992036 -0.5158075 -1.068193 2.272263 0.4647954 1.146449 1.644054 0.4741787 0.8655973 -0.7161722 0.1595225 0.725295 -0.2237901 -0.4935373 -0.6005116 1.103454 0.9267029 2.259679 -0.9117219 -0.6998151 -2.065454 0 0 0 0 -0.09541795 0.06076021 0.0151507 -0.02344304
13 -0.01913136 0.01913136 -0.3359408 -0.006030765 0.1369759 0.1006611 0.01216732 -0.02469978 -0.2139289 0.007058902 -0.2361611 0.06168976 -0.02372482 -0.2631137 0.06078578 -0.2896177 -0.3611218 0.4732813 0.1425142 -0.05650758 -0.0343769 0.007941315 -0.03824527 0.1670938 0.1981737 0.2904852 0 0 0 0 0.02509332 0.02649146 -0.02591349 0.008366736
14 -0.03046052 0.03046052 -1.982601 -0.5018521 -0.9479505 -1.52838 -0.4862262 -0.9034654 2.056261 0.5035854 0.9912092 1.834104 0.4901819 1.208541 -0.118415 -0.1060967 -0.3443104 -0.5497078 -0.137002 -0.2937809 0.8912158 0.6747488 1.957087 -1.035767 -0.6909293 -2.024597 0 0 0 0 0.001049096 -0.06955381 -0.00811787 -0.01746714
15 -0.008592927 0.008592927 0.2112106 -0.02630068 -0.1129375 0.09578475 -0.01957638 -0.0682821 -0.04253546 -0.0300429 -0.2413574 -0.1206456 -0.009406372 0.1268863 -0.6294113 0.2686826 0.2710504 -0.06703697 -0.3091179 -0.06436667 0.04428457 0.02838845 -0.04919437 -0.1606299 -0.1727574 -0.2475691 0 0 0 0 0.01908798 0.01815191 -0.01029626 -0.004622846
16 0.03526689 -0.03526689 0.1026112 0.01585534 -0.004083437 0.1536101 0.001759209 -0.0682772 -0.008203726 -0.02985235 0.1557179 0.01997896 -0.01828414 0.03299682 -0.05460436 -0.001238879 -0.08334875 -0.08565739 0.2343094 0.005227375 0.04652962 0.0232239 -0.01578568 0.03776604 0.01805052 -0.2035001 0 0 0 0 -0.02278437 0.03361816 0.02202522 0.003664691
17 0.02467617 -0.02467617 0.07207069 0.0248 0.08231084 0.151906 -0.007461273 -0.01464879 -0.06553217 0.005180991 -0.08438487 -0.2364455 0.02115635 0.01156963 -0.0491443 -0.2028986 -0.05856406 -0.2152967 0.1677168 -0.656775 0.05617398 0.0162253 -0.06595006 -0.04194654 0.1383392 0.2957873 0 0 0 0 -0.004025338 0.07601841 0.03454077 -0.01282523
18 -0.01959375 0.01959375 -0.1103508 -0.009538949 0.1253507 -0.2119541 -0.01193883 -0.01555212 -0.07506941 -0.02739927 -0.4915273 -0.2471708 5.706179e-05 -0.3915735 -0.2196291 0.04827961 0.04239167 -0.5258233 0.1038505 0.5950597 -0.009457853 0.001234835 -0.09759248 0.05569772 0.06724943 0.1066755 0 0 0 0 -0.03883533 -0.04888704 -0.01420119 -0.03912952
19 -0.01927814 0.01927814 -0.0242829 0.003132295 0.05112748 -0.06092272 0.03403638 0.09714443 -0.003211471 0.01518236 -0.03994096 -0.05086371 0.01885981 0.05506049 -0.1743194 -0.1738298 -0.2906039 0.06535121 0.1600444 0.9559003 0.05832259 0.111266 0.09270129 0.1687113 0.1399472 0.09648467 0 0 0 0 -0.03551146 0.09173158 0.01863717 0.0226869
20 -0.01895414 0.01895414 -0.003853993 0.01185838 -0.1533375 0.003950111 -0.001170701 0.05291422 0.2051497 -0.03137246 0.1164619 0.1101069 -0.01466684 -0.1967741 0.1189725 0.04579707 -0.03110499 -0.3732962 -0.03169906 -0.004605806 -0.03121668 0.0083361 -0.05787259 -0.04501227 0.02577637 0.07199089 0 0 0 0 0.0172971 0.06824764 -0.003954737 -0.0003017374
22 0.01226776 -0.01226776 0.1227072 0.001209259 -0.00736383 0.04207133 0.02603738 -0.134832 0.1660044 0.01406845 0.2457984 -0.1466713 0.02917013 -0.1216692 0.09175023 0.2177179 -0.06677778 0.5606203 -0.06818326 0.1588778 -0.06539511 -0.1140623 -0.1498483 0.06422577 -0.2054558 -0.2513628 0 0 0 0 0.0817641 -0.05048201 0.01511132 -0.001648469
23 -0.01283614 0.01283614 0.09077903 0.004901624 -0.105979 -0.02564621 0.02242563 -0.09419955 0.3434192 -0.03832793 -0.1156973 -0.2312375 0.01055961 -0.2365835 -0.2438475 -0.511403 0.06917174 -0.3204854 -0.3057558 0.252244 -0.09058804 -0.06313401 -0.0469798 0.06997334 0.1564725 0.4372316 0 0 0 0 -0.0699666 -0.008302088 -0.01403912 -0.004933903
25 -0.01913136 0.01913136 -0.3359408 -0.006030765 0.1369759 0.1006611 0.01216732 -0.02469978 -0.2139289 0.007058902 -0.2361611 0.06168976 -0.02372482 -0.2631137 0.06078578 -0.2896177 -0.3611218 0.4732813 0.1425142 -0.05650758 -0.0343769 0.007941315 -0.03824527 0.1670938 0.1981737 0.2904852 0 0 0 0 0.02509332 0.02649146 -0.02591349 0.008366736
26 -0.4852345 0.4852345 7.270429 0.04663465 1.373981 -4.741519 0.4577883 0.4930069 1.129408 0.3142469 0.7095084 0.91447 0.3302429 0.2803033 -1.703084 0.2054093 -1.289081 4.873231 3.76142 3.156826 0.4880889 0.8371993 3.072619 -0.2522004 -0.1067433 -1.009588 0 0 0 0 0.75 0.01215679 0.2925823 0.07862345
27 -0.01682026 0.01682026 -1.893103 -0.5111148 -0.8511425 -1.496125 -0.5565601 -1.191588 1.860082 0.4961693 0.9380256 1.797318 0.4833033 0.7649538 -0.3819867 0.1903148 -0.3983722 0.02773226 -0.1440829 -0.2944737 0.9712649 0.5484016 1.853919 -0.9991712 -0.7043497 -2.103787 0 0 0 0 -0.06826763 0.05757694 -0.02111406 -0.01726807
28 0.04232846 -0.04232846 0.0249223 -0.01128926 0.2365133 -0.1369061 -0.02434179 -0.02725999 0.08276376 -0.02157457 -0.03390508 0.2907381 -0.01395943 -0.05090612 -0.03583303 -0.04720133 -0.4953842 -0.6523948 -0.5227651 -0.3871436 0.01597787 -0.01599809 -0.1725737 0.0574706 0.04254105 -0.1684045 0 0 0 0 0.04410712 -0.02154885 0.0007506421 -0.01783933
29 -0.02163921 0.02163921 0.3260604 -0.02335814 -0.03490966 -0.04836322 -0.01766722 -0.1523139 0.1340171 0.009215398 0.3368723 0.05657519 0.004361063 -0.06287411 0.1382718 -0.1691284 0.2099589 0.07632109 -0.301485 -0.5398803 -0.05383258 -0.1146855 -0.1533923 -0.2048987 -0.06054588 -0.1976103 0 0 0 0 0.03729329 0.001448136 0.01129092 -0.008710485
30 -0.02948145 0.02948145 -2.036989 -0.5203576 -0.983779 -1.660697 -0.4915913 -1.056083 1.866207 0.5015105 1.032154 1.778892 0.4802613 0.8627666 -0.3812483 0.2137737 -0.2685399 0.4822384 -0.1417788 0.1611808 0.6989996 0.4050326 1.683948 -1.021634 -0.7800192 -2.026527 0 0 0 0 -0.04305792 0.03782941 -0.02400586 0.0004199493
31 0.04155041 -0.04155041 -1.751272 -0.5303749 -0.9664966 -1.45579 -0.510903 -0.7662862 1.968204 0.48109 0.7366251 1.607302 0.511205 0.9695905 -0.3988828 0.09652265 -0.4505357 0.4620052 0.2709249 0.4666258 0.9592316 0.6579307 2.102327 -0.9606624 -0.7769762 -2.060024 0 0 0 0 0.008371927 0.005723136 -0.03480246 0.01017421
32 -0.05258851 0.05258851 -0.684082 0.02999823 -0.2193003 -0.05038965 0.03273517 0.1584354 0.4329706 -0.007429153 -0.003728096 0.09282735 0.002576574 -0.1390797 -0.3341673 -0.2950826 0.3245094 -0.3733885 -0.1738309 0.3884291 0.00877405 -0.07653247 -0.04932456 -0.03972141 0.04647891 0.001411712 0 0 0 0 -0.1197926 0.08076486 -0.004876532 -0.001510889
33 0.03681621 -0.03681621 0.214598 -0.0017963 -0.01663637 -0.1318794 -0.01039453 0.03378354 -0.04440568 0.03762087 0.003421204 -0.02285736 0.02181059 -0.0005508786 0.2151652 -0.3505442 -0.2158618 0.394025 -0.2544529 -0.3475912 0.04200185 0.04517528 0.04233249 -0.09439966 -0.01061926 0.2018467 0 0 0 0 -0.04106106 -0.00234651 0.02139862 0.0196849
34 0.03386721 -0.03386721 0.3082688 -0.01347586 0.06107195 0.3604208 -0.02537368 -0.03952361 -0.1075153 0.01324306 -0.2878339 -0.132881 -0.001057526 0.2760553 -0.3055111 0.06982753 0.1418764 -0.2078105 -0.08665134 -0.06521703 0.002160072 0.0141646 0.06771124 0.03883859 0.1488378 0.005829846 0 0 0 0 0.05831167 0.03360426 0.01314163 -0.007133357
34 -0.01321333 0.01321333 0.1730766 -0.01738553 -0.02825318 -0.08242289 0.001288945 -0.01638216 0.0007829631 0.004893703 -0.1904341 -0.3850012 0.05046317 0.1861842 -0.6317957 0.08469764 -0.06555363 0.2738258 -0.3829679 -0.4023244 -0.009481747 0.04148265 0.1062714 0.03939596 -0.02366149 0.1591806 0 0 0 0 0.02277304 -0.06093281 -0.00584753 -0.02153495
35 0.07400178 -0.07400178 0.2457797 0.005321669 0.1395905 0.4392284 -0.002329614 0.08243013 -0.02533385 -0.03515074 -0.192018 -0.3304605 -0.004946234 0.06859071 -0.2616577 -0.08757109 0.1374205 0.0890969 0.1134702 0.2537825 -0.01624615 0.004472253 -0.1342593 0.1235136 0.1921433 0.0395619 0 0 0 0 -0.003828235 0.04780312 -0.00718225 0.00720851
36 0.01593848 -0.01593848 -0.0004723365 0.01472218 0.11027 -0.2012947 0.0229795 -0.1367173 0.1381237 0.002341034 -0.003144334 -0.1620111 0.02527482 -0.02158864 -0.06190913 0.3359506 0.4045953 -0.5152127 -0.0287409 -0.1428124 0.02516587 -0.07384191 -0.2359447 0.04280649 0.1114987 0.2914233 0 0 0 0 0.01888302 0.01094606 0.01587691 0.002847037
37 -0.06230511 0.06230511 -0.009225204 -0.000167397 0.1209354 -0.1400764 0.004030239 0.1368501 0.3228309 -0.0224911 -0.09724132 -0.01302491 0.007793786 -0.06586942 0.07983641 -0.1095575 0.1007877 -0.3512673 0.02105548 -0.07441785 0.02037498 0.02703247 0.07507357 -0.08887706 -0.106254 0.01390959 0 0 0 0 0.02858142 0.01720433 0.03780407 -0.02868572
38 -0.09653496 0.09653496 -0.2311136 0.01656611 0.1613888 0.1555079 0.01242497 0.3028904 0.2163844 -0.01378457 -0.14996 0.02026952 -0.007115909 -0.009206457 -0.2392148 0.2010284 0.2409237 -0.1668153 0.08790983 -0.2862522 0.05666494 0.08982815 0.02883616 -0.1265001 -0.1005241 0.01662174 0 0 0 0 -0.07097587 0.01523412 0.002885808 0.05882707
39 -0.01321333 0.01321333 0.1730766 -0.01738553 -0.02825318 -0.08242289 0.001288945 -0.01638216 0.0007829631 0.004893703 -0.1904341 -0.3850012 0.05046317 0.1861842 -0.6317957 0.08469764 -0.06555363 0.2738258 -0.3829679 -0.4023244 -0.009481747 0.04148265 0.1062714 0.03939596 -0.02366149 0.1591806 0 0 0 0 0.02277304 -0.06093281 -0.00584753 -0.02153495
40 0.07400178 -0.07400178 0.2457797 0.005321669 0.1395905 0.4392284 -0.002329614 0.08243013 -0.02533385 -0.03515074 -0.192018 -0.3304605 -0.004946234 0.06859071 -0.2616577 -0.08757109 0.1374205 0.0890969 0.1134702 0.2537825 -0.01624615 0.004472253 -0.1342593 0.1235136 0.1921433 0.0395619 0 0 0 0 -0.003828235 0.04780312 -0.00718225 0.00720851
41 0.02634735 -0.02634735 -2.266237 -0.4913996 -0.8225241 -1.372971 -0.5205254 -1.233333 2.309986 0.4795275 1.101617 1.805888 0.4663855 1.185161 0.2214366 -0.1564481 0.4695903 -0.4929638 0.03125689 0.05477491 1.026008 0.6864422 2.021734 -0.9735926 -0.6156812 -1.945645 0 0 0 0 0.01144457 0.006800027 -0.002516009 0.005284597
42 0.0201971 -0.0201971 0.2322334 0.001507011 -0.1475427 0.1923525 -0.002845839 -0.01275662 -0.06888273 -0.02792223 0.2780827 -0.02587731 -0.02273561 0.006192641 -0.2496298 -0.4818066 -0.4212074 -0.470197 -0.1446776 -0.07876078 -0.1033951 -0.09343467 -0.1372123 -0.08390141 0.1473019 0.1938207 0 0 0 0 0.05321703 -0.02164677 -0.02359728 0.01152387
43 -0.4898813 0.4898813 -1.269843 0.2997864 3.238383 3.13961 0.356609 1.720302 0.9898818 0.2730507 0.3426414 0.8236367 0.2472989 0.2130853 -1.991278 -0.2433321 -1.991693 5.216005 4.442305 4.453066 1.576014 1.286774 0.5226612 0.02205601 0.09945527 -0.4744744 0 0 0 0 0.75 -0.07539206 0.2549229 0.01192646
44 -0.04280548 0.04280548 0.02157434 0.005196063 0.3355674 0.1168881 0.0004120594 0.3270096 0.04255431 -0.005527355 -0.04951083 -0.1520273 -0.02518504 0.1114807 -0.1579466 0.1253042 0.1510581 -0.07476078 0.3917463 0.01966719 0.01520916 0.02759447 -0.03494068 -0.1778499 -0.0568656 0.09357897 0 0 0 0 0.0441122 0.05199412 0.05313927 -0.001215148
45 0.02913525 -0.02913525 -0.1297068 -0.004922407 -0.003786753 0.2361632 0.006499223 -0.00899376 -0.01832069 -0.01372941 -0.2226126 -0.05399031 -0.01097058 -0.3769209 0.4231084 0.1454093 0.1916391 0.08583394 -0.122642 -0.3258578 0.007215946 0.02027199 0.0258693 0.2230767 0.1422845 0.09588618 0 0 0 0 -0.05698659 0.01125482 0.003552002 0.02520214
46 0.06960852 -0.06960852 -0.2027384 0.02547298 -0.1516698 -0.1239644 0.02270025 -0.3285155 0.285314 -0.04096844 0.04177287 0.2890952 -0.03996319 -0.2222383 -0.1694632 -0.1263099 0.1669832 0.3883288 -0.3590796 -0.6739012 0.02641965 0.07631014 0.03707476 0.003867622 -0.07674125 -0.1014261 0 0 0 0 -0.01166783 -0.06308186 0.01771757 0.03430604
47 0.007260733 -0.007260733 -0.1494203 -0.01165028 -0.2522158 -0.09414119 -0.01271375 -0.2438483 0.2885448 -0.009357629 -0.02871166 0.0518487 -0.006400322 -0.2959537 0.05290142 0.2290546 -0.1466208 0.4113457 -0.3494524 0.1788855 -0.0263411 0.04086189 0.1422822 0.1942424 0.1891456 0.1493345 0 0 0 0 -0.03714764 0.06916649 -0.004966274 0.03311909
48 -0.05617841 0.05617841 0.2407022 0.0002348016 -0.05254908 -0.006348427 0.01026744 -0.1487374 -0.2078886 -0.03769232 -0.1246426 0.4097099 -0.05917944 0.04477211 -0.01140654 -0.08423874 0.02256059 -0.1195775 -0.01234717 -0.5595713 -0.0412731 -0.05472728 -0.05699196 0.05504312 0.05646455 0.0521835 0 0 0 0 -0.05362123 0.07137246 -0.01753278 0.01257845
49 0.02320925 -0.02320925 -0.1669021 0.004292721 -0.06235579 -0.1610575 -0.007688462 -0.09349565 -0.2434425 0.01038438 0.06388269 -0.1969307 -0.001404658 -0.03747471 -0.08628729 -0.2012082 -0.2939958 0.2948442 0.4214159 -0.3424374 0.0218105 0.0072936 -0.08130363 -0.2748107 -0.1282285 -0.2850896 0 0 0 0 0.0267878 0.06440957 -0.000172879 -0.03202659
50 -0.009254472 0.009254472 0.0152338 -0.03324545 -0.1153081 0.1717315 -0.03653386 0.160684 -0.1217266 0.002678595 0.07332309 -0.3500486 0.02975437 -0.2036652 -0.1368539 0.1861329 0.4744355 -0.2532677 0.173258 0.4773816 -0.007987841 0.02268249 0.008765176 -0.03525923 -0.0375702 -0.1537395 0 0 0 0 -0.03000043 0.01280225 -0.02559552 0.01377417
51 0.03496241 -0.03496241 -2.199205 -0.4703468 -1.35464 -1.860514 -0.4783683 -1.300306 2.042084 0.5049782 1.030762 1.402531 0.5251745 0.7983224 0.2796318 0.1961507 -0.007161288 -0.07671098 -0.1311108 -0.1610532 1.068806 0.7199205 1.900938 -1.108581 -0.731618 -2.007562 0 0 0 0 -0.05344023 -0.04651508 0.01201486 -0.01357005
52 -0.01694183 0.01694183 0.01832941 0.0006248567 -0.008374446 0.1434462 -0.006334425 0.0374718 -0.3242864 0.01290105 0.5099998 -0.166539 0.02145497 0.1650081 -0.5089298 0.01316892 -0.3186013 -0.5466611 0.005881424 0.2634482 0.05624652 0.06033231 -0.04281004 -0.227618 -0.1521489 -0.1653358 0 0 0 0 0.03432107 0.02737496 -0.004519096 -0.001022117
53 -0.03130711 0.03130711 -0.3594437 0.01171795 0.3986502 -0.04481486 0.005246928 -0.08598125 -0.1257736 -0.01891957 -0.06689321 -0.1282472 -0.01415403 -0.09045383 0.2695925 -0.4785201 0.2623626 -0.148092 0.1906375 -0.3745797 0.08621295 -0.001872077 0.02138483 -0.1613504 -0.1885535 -0.07001586 0 0 0 0 -0.03524553 -0.01834685 -0.004410336 -0.01480274
54 -0.01294658 0.01294658 -2.135248 -0.483933 -1.023866 -1.447212 -0.5055926 -1.055513 1.896037 0.5045532 0.8228997 1.51733 0.4774507 1.32517 -0.3368706 -0.2553581 0.1599761 -0.4319101 -0.03865538 -0.09388394 1.119215 0.8811628 2.177352 -0.8812327 -0.6091608 -1.840003 0 0 0 0 -0.0286492 -0.03250547 0.007054763 -0.003447272
55 0.01331585 -0.01331585 -0.1530057 -0.01260465 -0.3827028 0.06644334 -0.01242866 -0.1299722 0.1617471 -0.007759368 -0.2361464 0.397414 -0.03365875 -0.4200708 0.1717245 -0.03547944 -0.1859838 0.2245905 0.5687298 0.336015 -0.003367045 0.01335562 -0.1070436 -0.1012342 -0.09343445 -0.4388799 0 0 0 0 -0.04476231 -0.0113458 0.0225119 -0.0123618
56 0.0397162 -0.0397162 -1.873228 -0.5223676 -0.9379387 -1.190114 -0.5320169 -0.7194876 1.643435 0.5121691 0.8581178 1.295666 0.516347 0.7696451 0.1715204 -0.4364279 -0.1721252 -0.06329438 -0.1333666 -0.4959587 0.9252546 0.5535201 1.842411 -0.9997656 -0.7358201 -2.161504 0 0 0 0 -0.01443732 0.03132772 -0.01292414 -0.02090923
57 0.0172727 -0.0172727 0.08321911 0.005750017 0.09642063 -0.5742267 0.04121067 -0.1877809 -0.398807 0.01643476 -0.03769021 0.2150762 -0.03555112 -0.07934794 0.09686384 -0.1231061 0.1751413 0.1828726 0.4848136 0.1222442 0.06481627 0.09366453 0.04327654 -0.1610948 -0.06817092 0.1963606 0 0 0 0 0.001289441 0.06800654 0.008484928 -0.003405907
58 0.01601072 -0.01601072 -0.1259115 0.004503026 -0.0843863 0.05273663 -0.01170275 -0.07694274 0.1276977 -0.0001237755 -0.01882409 0.1240621 -0.02571263 0.1385274 0.02753449 0.2578253 -0.3106427 0.1295548 0.227127 -0.6120487 -0.002139958 0.003934033 0.01132365 0.1134007 0.1291405 0.2628308 0 0 0 0 -0.09810514 -0.02233804 0.01094798 0.009164215
59 -0.01252208 0.01252208 -0.01546261 -0.0128228 -0.003780806 0.247535 -0.01647756 0.06631674 -0.2261295 0.04659269 -0.1316452 -0.2068196 0.02473095 -0.3189969 0.2930759 -0.1131516 -0.3226856 -0.04507735 0.06524767 0.3951858 0.0108969 -0.04960076 -0.06261978 -0.1328095 -0.03858176 0.009990519 0 0 0 0 0.04259239 -0.06149133 0.02188959 -0.02494154
60 -0.4796829 0.4796829 -2.568577 0.2784355 -3.241561 5.214754 0.003001725 2.530876 0.8619077 0.2512718 0.2846033 0.7269422 0.2532533 0.6781411 -0.4104348 0.1001642 -1.870629 5.329163 5.05256 4.726259 0.06391458 0.05761679 1.893376 0.01438266 0.2340642 -0.3173438 0 0 0 0 0.75 -0.04856451 0.3344963 0.02378646
61 0.003544422 -0.003544422 -0.1170628 0.01981898 -0.2218762 -0.2727876 0.006108212 -0.2380918 -0.2597668 0.02162529 0.03936672 -0.3227576 0.03705229 0.1988063 -0.1441873 0.05328974 0.05500543 0.5618962 -0.272983 -0.1763091 0.04417497 -0.0404467 -0.2237848 0.0664937 0.03019968 -0.08692641 0 0 0 0 0.02405821 -0.009997926 -0.01384836 -0.000470939
62 -0.476125 0.476125 4.967287 0.2137231 0.6030514 1.216477 0.1632051 0.7901196 1.0984 0.2414471 0.2941852 0.6781648 0.2589841 0.3098554 -1.874495 0.07047735 -1.158257 4.985996 4.631812 4.260442 0.3813086 0.3589835 1.735503 0.0584486 0.1706014 -0.3538758 0 0 0 0 0.75 -0.04307646 0.1692562 0.0235652
63 0.02675523 -0.02675523 0.002352837 -0.0198771 0.1124879 -0.1800234 0.001683038 0.05092406 0.04213092 0.02077053 -0.1462781 0.3730038 0.008529641 -0.5592134 -0.4567909 -0.2079702 -0.06964968 0.6926259 -0.4773911 -0.01905886 -0.02554823 -0.04984703 -0.1265945 -0.02227858 0.02615189 -0.1752169 0 0 0 0 0.00523511 -0.03932086 -0.002256086 0.0106006
64 0.003544422 -0.003544422 -0.1170628 0.01981898 -0.2218762 -0.2727876 0.006108212 -0.2380918 -0.2597668 0.02162529 0.03936672 -0.3227576 0.03705229 0.1988063 -0.1441873 0.05328974 0.05500543 0.5618962 -0.272983 -0.1763091 0.04417497 -0.0404467 -0.2237848 0.0664937 0.03019968 -0.08692641 0 0 0 0 0.02405821 -0.009997926 -0.01384836 -0.000470939
65 -0.0005819558 0.0005819558 0.1399202 -0.01775758 -0.03228789 -0.09479937 0.005289426 0.09349502 0.1270034 0.00236487 0.09186683 -0.02146274 0.002020495 -0.2097391 0.333138 0.3978646 -0.4044994 0.3060591 0.0671052 -0.6357113 -0.07107629 -0.016351 -0.05960376 0.1237545 0.1668466 -0.115893 0 0 0 0 0.04454187 0.009320665 -0.01679431 0.02629979
66 -0.0005819558 0.0005819558 0.1399202 -0.01775758 -0.03228789 -0.09479937 0.005289426 0.09349502 0.1270034 0.00236487 0.09186683 -0.02146274 0.002020495 -0.2097391 0.333138 0.3978646 -0.4044994 0.3060591 0.0671052 -0.6357113 -0.07107629 -0.016351 -0.05960376 0.1237545 0.1668466 -0.115893 0 0 0 0 0.04454187 0.009320665 -0.01679431 0.02629979
67 0.05781083 -0.05781083 -2.159111 -0.4616957 -0.8389909 -1.476473 -0.4605426 -1.079719 1.815472 0.4999239 1.054978 1.686189 0.4893942 1.437257 0.1988881 -0.03181011 0.4206203 -0.2158653 -0.08060178 -0.014769 0.9387778 0.7279017 1.911805 -1.001247 -0.7047638 -2.032505 0 0 0 0 -0.01347979 -0.02561277 -0.01381239 -0.03938257
68 -0.006725646 0.006725646 -0.0210498 0.02291925 -0.03787647 -0.1360997 0.009672948 0.2358251 -0.02481337 0.01047085 0.1001869 -0.01315687 0.0205293 -0.1961787 -0.4651882 -0.2861516 -0.4159164 -0.005573087 0.2641417 0.4309281 -0.07362191 -0.03656304 -0.1206286 -0.2625768 -0.2775686 -0.3768 0 0 0 0 -0.02207131 -0.005405653 -0.006122637 -0.01692736
69 -0.0306846 0.0306846 -2.15781 -0.4696367 -0.9313431 -1.923517 -0.4467821 -0.9565928 2.234679 0.5210694 0.9788298 1.391869 0.5088827 0.9688485 -0.6587497 0.142397 -0.1034258 0.1130018 -0.3503101 -0.1688914 0.9067589 0.4603953 1.629932 -0.9793923 -0.7215726 -2.077298 0 0 0 0 -0.06575107 -0.02954385 -0.02411659 0.008157682
70 0.004192024 -0.004192024 -0.1740812 -0.005572772 0.2211939 0.1268546 0.01852421 0.6270078 -0.1813816 0.003819753 -0.06437476 0.3325327 -0.01220076 -0.1553162 0.2842622 0.01243318 0.003281186 0.01081955 0.05225422 -0.4750083 0.04109743 0.08954072 0.1534752 -0.1528437 -0.08078094 -0.2575415 0 0 0 0 0.11565 -0.06251747 0.007813833 -0.007453815
71 -0.01224648 0.01224648 -0.4353528 0.04831358 -0.0215833 -0.09564818 0.01228438 -0.01773992 0.005490381 0.01914755 -0.2959338 0.574512 -0.02439166 -0.1053287 -0.06703749 -0.3235954 -0.2093547 -0.2114487 -0.2401891 -0.3192844 -0.06382228 -0.03516447 -0.07742476 -0.06209553 -0.06090851 0.004104095 0 0 0 0 0.06998904 0.03210283 0.003395461 0.00541822
72 0.002684711 -0.002684711 0.1447745 -0.001941279 -0.0967732 0.1303831 0.01388995 -0.008231995 0.190833 0.01335941 -0.1998892 0.3617082 -0.01141769 -0.5261389 0.1764866 0.549502 0.8510167 1.281597 0.7899009 0.4440202 -0.04471931 -0.03014213 -0.09199363 0.09536457 0.0702539 0.1580297 0 0 0 0 -0.04285179 0.04393029 -0.008646121 0.007657542
73 -0.4381702 0.4381702 -5.77869 -0.4584791 -4.464122 0.04946485 -0.4293544 2.464054 0.7839974 0.2924541 0.2417194 0.5533576 0.3229031 0.5097282 0.8054519 0.2980845 -1.711941 4.12127 3.585171 3.157183 2.174696 0.05556625 5.726577 -0.1410055 0.1136238 -0.6809166 0 0 0 0 0.75 -0.03016335 0.1480859 0.02812331
74 -0.001677483 0.001677483 -0.002985236 -0.008919583 -0.04305602 0.2016232 -0.02659885 -0.07792493 -0.154883 0.01309434 -0.1633303 0.2294635 -0.02330331 -0.1184527 -0.2601147 -0.3060689 -0.2958382 -0.09243651 -0.3044048 -0.914936 -0.008737333 0.06882024 0.155688 0.006936235 0.09519984 0.009123044 0 0 0 0 -0.008651607 0.02269109 -0.01461614 -0.0281372
75 -0.001634374 0.001634374 -2.029499 -0.4888556 -0.9542827 -1.559793 -0.502681 -0.851359 1.943657 0.4956357 0.6766519 1.400144 0.5055274 1.016053 0.01626797 0.1045525 -0.4557689 -0.3611163 0.06912406 -0.1503346 0.9701771 0.8031859 2.075873 -0.9488815 -0.62077 -1.720016 0 0 0 0 -0.01746941 0.005278679 -0.007081134 0.01298673
76 0.03907987 -0.03907987 -2.251587 -0.5202301 -1.246711 -1.556979 -0.4900495 -0.8187716 1.92104 0.5083138 1.031316 1.364095 0.5140771 0.9259959 -0.5596712 0.4593251 0.3529285 0.1521009 0.05157883 -0.06684324 1.035253 0.8609188 2.104591 -1.064035 -0.8226055 -2.191412 0 0 0 0 -0.00620147 0.06675838 -0.007611123 -0.01986147
77 -0.4165229 0.4165229 -2.36466 -0.4862718 -1.934489 3.107522 -0.5599445 -0.2960531 1.077919 0.3013335 0.3404735 0.652233 0.3108271 0.4876647 -0.9138288 -0.2854583 -1.97297 2.87172 3.478509 3.73019 2.185528 1.151805 2.416635 -0.2505025 0.05754962 -0.6970979 0 0 0 0 0.75 0.05211125 0.06448618 0.08555553
78 -0.003566659 0.003566659 -0.002540466 -0.01513555 -0.1997613 0.3683474 -0.05058704 -0.1601856 0.1630407 -0.04983667 0.03166421 0.1678666 -0.01442714 0.05710653 -0.008125177 -0.2567067 -0.5148839 0.04636843 -0.07844665 -0.7269073 -0.05224829 -0.1020121 -0.1686402 0.04699015 0.1012152 0.06620831 0 0 0 0 -0.03832564 -0.07480069 -0.0100418 0.02202175
79 -0.01130027 0.01130027 -0.1424852 0.005053063 0.2392129 0.0383582 -0.004740513 0.1313228 0.1000881 -0.01452013 0.2026734 0.2186302 0.007323662 -0.2276906 0.3005344 -0.2275551 0.5260924 0.5963852 0.4121248 -0.2809123 0.04217313 -0.08295605 -0.1952587 -0.02089393 0.04427092 -0.01659081 0 0 0 0 0.05419101 0.06286091 0.03462991 0.004503517
80 -0.4806585 0.4806585 -7.375253 -0.06147115 -5.753632 -3.600299 0.1829926 -4.966503 0.9846397 0.2853993 0.538935 0.7357073 0.2710542 0.476759 -1.987606 -0.2640163 -1.946053 3.845843 3.524095 2.936752 2.075969 -0.7169727 1.539813 -0.06163681 0.1766304 -0.5839582 0 0 0 0 0.75 -0.02091529 0.3425775 0.04247784
81 -0.0490646 0.0490646 0.0489828 -0.00118026 -0.07569059 -0.1536965 0.002889112 0.05544127 -0.1684888 -0.01115436 -0.3822978 -0.07849738 0.001370549 -0.1157052 0.5942098 -0.02876809 0.1608653 -0.24668 0.001612927 -0.2370366 0.02140874 0.02663432 -0.04220606 -0.1279404 -0.1276339 -0.3383313 0 0 0 0 -0.01796837 0.01080253 -0.005296244 -0.01967019
82 0.01416503 -0.01416503 0.03886855 -0.005478773 0.1224569 0.2875536 -0.009864349 0.07769362 -0.1196461 -0.01589184 0.2941792 -0.04359558 -0.03018056 -0.01393314 0.6646718 0.175557 -0.2000731 -0.3511474 0.1701572 -0.2152164 0.09340706 0.1187523 0.04991203 0.04452235 0.1356543 0.1355705 0 0 0 0 0.03108138 -0.01805575 -0.02555747 -0.001744985
83 0.04180959 -0.04180959 0.08361817 -0.02711679 0.1922938 -0.2411691 0.00578107 0.1944513 -0.0980279 -0.002589081 0.1016367 0.08809257 -0.002171071 -0.1384599 0.06684806 0.2505212 -0.03415929 0.5019394 -0.13624 -0.2306153 -0.05039677 -0.1056439 -0.300312 0.3658336 0.203768 0.1279876 0 0 0 0 0.004485269 -0.06765516 -0.04723331 0.0005438821
84 -0.06657338 0.06657338 -1.890636 -0.5095742 -0.9891659 -1.324776 -0.5268533 -1.114463 1.725672 0.5009301 0.7961116 1.593376 0.5177674 0.8735178 -0.5893716 0.0275377 1.424126 -0.4701486 0.1934291 0.08586633 1.142257 0.7151289 1.409027 -1.047048 -0.8131098 -2.229165 0 0 0 0 0.07205612 0.01292213 -0.006346827 0.00937596
85 0.003792372 -0.003792372 -0.2182138 0.01097126 0.004957766 0.2142601 0.001508031 -0.1092809 -0.1259182 0.0022464 0.1987073 -0.04151288 -0.03144203 -0.001765049 0.4646324 0.1465215 0.2234692 -0.7038657 -0.2398142 -0.4949146 -0.02811194 0.01356066 0.1753401 0.06168614 0.1465166 0.04524888 0 0 0 0 0.03073734 0.05204418 0.01061668 -0.005189958
86 0.04427473 -0.04427473 -2.077666 -0.4969043 -1.022474 -1.567204 -0.5099851 -0.7707252 2.233136 0.48648 1.266746 1.49968 0.5025003 1.126708 -0.1505437 0.4720979 -0.03470342 -0.3799789 -0.2200686 0.2813302 1.016518 0.7908723 1.947901 -0.990507 -0.5883014 -1.876187 0 0 0 0 0.0567611 -0.03104289 -0.009566712 0.002638348
87 -0.100467 0.100467 -2.185197 -0.4886429 -1.241586 -1.505955 -0.5108094 -0.9727264 1.938566 0.5188552 1.119856 1.514025 0.5100559 0.9883158 0.3126619 0.09421865 -0.02858264 -0.4275894 -0.2613423 -0.1898162 0.9409302 0.7218599 2.095191 -1.083134 -0.7975042 -1.996496 0 0 0 0 -0.008485284 0.07957453 -0.01947651 -0.01220522
88 -0.008840478 0.008840478 0.1146632 -0.00447415 -0.008804478 0.1047856 0.006745315 -0.140572 0.3237585 -0.03631093 -0.3505013 0.1289233 -0.02154117 -0.03685156 -0.6891011 -0.3320988 -0.6893648 0.4864846 0.05301448 0.007016225 0.02402909 -0.03863904 -0.1760522 0.0666367 0.2139661 -0.04555491 0 0 0 0 -0.03513421 0.02386263 0.002094984 0.003665053
89 0.03907987 -0.03907987 -2.251587 -0.5202301 -1.246711 -1.556979 -0.4900495 -0.8187716 1.92104 0.5083138 1.031316 1.364095 0.5140771 0.9259959 -0.5596712 0.4593251 0.3529285 0.1521009 0.05157883 -0.06684324 1.035253 0.8609188 2.104591 -1.064035 -0.8226055 -2.191412 0 0 0 0 -0.00620147 0.06675838 -0.007611123 -0.01986147
91 -0.003566659 0.003566659 -0.002540466 -0.01513555 -0.1997613 0.3683474 -0.05058704 -0.1601856 0.1630407 -0.04983667 0.03166421 0.1678666 -0.01442714 0.05710653 -0.008125177 -0.2567067 -0.5148839 0.04636843 -0.07844665 -0.7269073 -0.05224829 -0.1020121 -0.1686402 0.04699015 0.1012152 0.06620831 0 0 0 0 -0.03832564 -0.07480069 -0.0100418 0.02202175
91 -0.02268624 0.02268624 0.07364365 -0.01640731 -0.0867344 0.1114816 0.008334009 0.1791726 -0.4336444 0.02672574 0.3787683 -0.1993636 0.0346719 -0.2882724 -0.3633224 0.1106034 0.1355327 -0.3585211 0.1427207 0.7804631 0.03724973 0.00359299 -0.01994367 0.433348 0.2043033 -0.02140103 0 0 0 0 -0.05418937 -0.02761173 0.02273961 -0.004939771
91 -0.02268624 0.02268624 0.07364365 -0.01640731 -0.0867344 0.1114816 0.008334009 0.1791726 -0.4336444 0.02672574 0.3787683 -0.1993636 0.0346719 -0.2882724 -0.3633224 0.1106034 0.1355327 -0.3585211 0.1427207 0.7804631 0.03724973 0.00359299 -0.01994367 0.433348 0.2043033 -0.02140103 0 0 0 0 -0.05418937 -0.02761173 0.02273961 -0.004939771
92 -0.01130027 0.01130027 -0.1424852 0.005053063 0.2392129 0.0383582 -0.004740513 0.1313228 0.1000881 -0.01452013 0.2026734 0.2186302 0.007323662 -0.2276906 0.3005344 -0.2275551 0.5260924 0.5963852 0.4121248 -0.2809123 0.04217313 -0.08295605 -0.1952587 -0.02089393 0.04427092 -0.01659081 0 0 0 0 0.05419101 0.06286091 0.03462991 0.004503517
93 0.01962957 -0.01962957 -0.09394284 -0.003551725 0.1477674 0.1284076 0.01463851 0.2270083 -0.0318798 0.01227861 0.1500059 0.07599161 0.03682316 0.09673559 -0.003699909 -0.2312625 -0.5689966 -0.1291851 0.1466751 -0.2236229 0.04790292 -0.03386966 0.10806 -0.1403482 0.005594523 0.02100623 0 0 0 0 -0.03405211 -0.02060072 0.00218693 -0.006953951
94 -0.006460693 0.006460693 -0.1062996 0.0105954 0.2258772 -0.1133093 0.02943329 0.2312249 0.196209 -0.003663065 0.1717102 0.4789834 -0.05060947 -0.1745284 0.9543958 -0.3396216 0.3623289 0.07635359 0.01076758 -0.2969659 0.04509184 0.0247297 -0.0371941 0.04013586 0.1431967 0.2917048 0 0 0 0 -0.0150709 0.04310623 0.01327899 0.0287943
95 -0.03032413 0.03032413 0.3383732 -0.03087402 0.1503176 0.2164008 -0.0189368 0.01795683 0.2143247 -0.00767711 0.1711631 0.1701669 -0.02425578 0.01736523 -0.2695393 -0.07542841 -0.5023674 0.4108035 0.3175864 0.01453881 0.04623495 0.04148407 0.09848541 0.09606957 0.006000963 0.07853717 0 0 0 0 -0.03430557 0.0148173 0.03467515 0.009738467
96 -0.04036105 0.04036105 -0.02574786 -0.002121912 0.3225633 0.1538009 0.000735977 -0.4012261 -0.06060845 0.02757598 -0.09392659 0.04628924 0.000647198 -0.0008431178 0.1119012 0.1568997 0.7902101 -0.5198427 0.3389648 0.1147758 -0.06165815 -0.05830788 -0.1353997 0.1328329 0.1668562 0.2100719 0 0 0 0 -0.0884917 0.06971879 0.01233415 0.02068652
97 -0.05408425 0.05408425 -0.20459 0.01791952 0.08243816 -0.1165246 0.001520904 -0.4412243 0.1393017 -0.01937532 -0.02025717 0.1862518 -0.0121277 -0.06636224 0.04215658 -0.5539928 -1.014975 -0.433855 -0.2677444 -0.04550128 0.0230639 -0.09157562 -0.2263174 0.04466036 0.03679979 -0.07275148 0 0 0 0 0.01421578 -0.02842442 0.002262162 -0.02485274
98 -0.006541515 0.006541515 -0.03127675 -0.01845414 0.02877491 0.07305806 -0.008917948 -0.02401012 0.3375934 0.0008670855 0.1036081 -0.1912417 0.001547526 -0.146373 0.06327264 -0.1481204 -0.7349373 0.06508696 -0.1488917 -0.4483017 -0.008089402 -0.0713951 -0.05577488 0.1981965 0.2209548 0.4898388 0 0 0 0 -0.01039567 -0.0458412 -0.01874996 -0.001363013
99 -0.0269738 0.0269738 0.1018571 -0.0111042 -0.06330937 -0.4576905 0.01523799 0.1105161 -0.1581852 -0.00137578 -0.26269 0.2012648 0.005017138 0.0562856 -0.2060365 0.07519082 0.2911315 -0.3651365 -0.1605295 -0.2863647 0.07352855 0.002482046 -0.07191535 0.0739552 0.1583448 0.1715233 0 0 0 0 -0.02528251 0.05577035 0.0132846 0.0172691
100 -0.4607194 0.4607194 1.493703 0.1736987 0.9708467 2.657569 0.1754646 -0.168911 1.030303 0.2447263 0.3380867 0.7425382 0.2533208 0.3066284 -1.292005 -0.3009963 -1.872097 3.691321 3.83923 3.445984 0.1106899 -0.004680016 0.756478 -0.0382453 0.05042256 -0.6142825 0 0 0 0 0.75 0.03333693 0.06309038 0.02237329
